solver_type L2R_L2LOSS_SVC_DUAL
nr_class 2
label 1 -1
nr_feature 5000
bias -1
w
0.6279190578792849 
-0.411931065229242 
0.4651154283411263 
-0.3656031674179885 
-1.982833737463803 
-1.165081747741062 
-0.6517164502440383 
7.214622062861922 
-0.5365070807818546 
-0.5802972410348086 
-1.05921841844189 
-0.3446762949799119 
-0.1239792735597867 
-0.02014852955060993 
-0.9836031016429457 
-1.103418777396454 
-0.1357853688707207 
0.0628120182570976 
5.53423814562095 
-1.33571064575864 
1.137813643656472 
0.5693622452057029 
-0.8176456505681005 
-3.966989849299454 
0.01639209766934991 
-1.55290624350509 
-0.0308980577635179 
-0.1863181583550958 
-4.666773081571523 
-1.180620672467225 
-0.09087080092825495 
-0.971852046541494 
-0.1647213242146176 
-0.1232214391376923 
0.1470303816232273 
0.9985227208578097 
0.009548778280261211 
0.5696291562647469 
-0.7420335407856024 
-0.6317589198512726 
1.361998562896825 
-0.121803281343883 
-0.1736516502646624 
0.4163720557994173 
-0.5055539883933596 
0.8828665336638432 
0.3419934910532675 
-0.6915937896363837 
-1.412701065636187 
0.9302862121686428 
-0.9413589492495674 
6.603393947627216 
0.4904915610270065 
0.2486464702930053 
0.5203998178354663 
-0.3236189203480376 
-1.419690721065907 
-1.250686307898264 
-0.7539041341195702 
-0.3176002503273129 
1.326803851649413 
0.68610765864179 
-0.2251934392649259 
-0.1912358804516099 
-0.8922893104262455 
-0.778584784846522 
-0.3056700491711135 
3.468412289077262 
-2.643121699386268 
-0.1410702445078285 
0.006086776815003132 
0.09237925768435518 
0.2737909598919278 
0.1241097742881367 
-1.658943149932407 
-0.2420004115038419 
-0.2960832825065593 
-0.4981916365467359 
-0.1626842063695204 
-1.430607240181118 
-0.07268159937437577 
-0.5036722937709622 
-0.6082783679387552 
3.412115638706922 
-0.8104089450382121 
-0.7585169237199351 
-0.1832453807947371 
-0.2058437812272045 
-0.1710838011755743 
0.09917062446894216 
1.122815333037803 
-1.948171592584258 
-0.02911256465724783 
-0.3885415409004301 
0.3253602765362261 
-1.587163242270712 
-0.5629326079476469 
0.1863936164895711 
-1.63205375241314 
-0.146000282894106 
-0.5875235445304557 
-0.01680534778107586 
-1.08010377462568 
-1.535014374739483 
0.007436298031980386 
0.2765341961141445 
-1.48765513377327 
-0.2988481536257444 
-0.3214661569185275 
0.08354604623948769 
-0.1065796086332796 
-1.474412910464257 
-0.3128627906566237 
-0.4626326567517597 
-0.1783983869663464 
-0.4973495885679283 
-0.136255679908634 
0.4741254307331093 
0.2736074641779452 
-0.47774542324407 
-0.2829317880559138 
-0.06035117596544754 
0.1671342489634866 
-0.3445365579795919 
0.08389039796063893 
-0.9693881290567229 
-1.18555864919023 
0.1956185870829485 
-2.077860285681323 
-0.1768864143410082 
0.2614182556996405 
-2.968374568802274 
-0.7561290138896781 
-0.3642758528099864 
-0.7050917641799658 
-0.1388249983462781 
1.232682615347193 
2.009281519935192 
-0.3487192854819622 
-0.369173677434322 
0.6285167594827584 
-1.598282091590247 
-1.83701128040669 
-0.9625187006649094 
-0.2290953935890516 
0.06060693884846105 
-0.2000206704674886 
-0.2447376568066745 
-0.2909389045845386 
-1.010233647679865 
-0.8327952208140229 
-0.7366801669598272 
-0.334710646661304 
1.186507057839682 
-0.9762038820621948 
-0.8354059533871331 
-0.47119734711366 
1.831090265429458 
-0.2025515819652425 
0.9078626654823899 
-0.201424978761926 
-0.1157683260775175 
-0.7436414852975731 
-0.8028840864185219 
-1.268111724841656 
0.6110017264100113 
-0.3067378169786788 
0.09866699987777389 
-0.4718965739931215 
-0.1734574732252701 
2.0472905119003 
-0.2993278057544628 
0.3700945983338562 
0.6700126090662493 
-1.030759935575136 
-0.4138954279111743 
0.6645407128561894 
0.07580907638059085 
0.8789638777199277 
-0.9332405404649758 
-0.4244193436274382 
1.487850309543744 
0.2007531852263885 
-0.482884359032754 
-0.7690553364132583 
-0.3284042331938797 
-0.5038963430488325 
-0.2309307497639109 
-4.247732671364337 
0.08105529156874319 
-0.1347058915410816 
2.671541251319794 
0.007376939647793275 
-0.2733116112550381 
-2.402325547852971 
-0.5603861592805039 
0.02985883364347132 
0.3961913633167807 
-0.2531546357251298 
-0.01096865912265339 
-0.3395794224473423 
-1.47347673431025 
-2.33899354278453 
-0.2730481336364766 
-0.04334321765503282 
-0.2133661364389884 
-0.3199531617587908 
-0.517105466179948 
-1.739897728064577 
-1.208569673013216 
-0.3765478938015163 
2.63944620401805 
0.4497976661335827 
-0.8555418396526758 
-0.1582456089230101 
-0.1814883392131915 
1.705980486109115 
-0.3675386651120288 
0.8003194584347937 
-0.126857970889508 
-1.197358076313203 
-0.1575453833513266 
0.0331405792073392 
0.609484989367727 
0.1263780861320101 
0.3875136980818241 
0.6104922008961416 
-0.5410831494809369 
-0.2911333705637459 
-1.040331405869311 
-0.2337795017646176 
-0.06469020465919759 
-0.3217655398930286 
1.660856921554793 
-1.174135505570674 
-2.015888916320875 
-0.1803227802499246 
0.8183801641213582 
0.5790322287063911 
-0.2299561360345483 
-0.746584960043476 
-0.006969575585896883 
-0.7604521924050756 
-0.6439482432604053 
-0.621063196585377 
0.1490222908685303 
-0.8205486758871763 
-0.2977412123275152 
-0.1044198788866385 
-0.4494184555033012 
0.5867463118903642 
-0.4820282225039016 
-1.436147358779623 
-0.08695906020552854 
0.02024551410658221 
0.69582648524206 
-0.2068878463167619 
-0.3382389714791642 
-1.27476773813644 
-0.5072970214235979 
0.2132683424516706 
-0.06527645084312519 
-0.842619326269462 
-0.1974444005392399 
-0.06103896880819588 
-0.40524259023119 
0.53788752339651 
0.1813244913401947 
0.1550299542264201 
-0.773357490952566 
-0.9065199186488603 
0.3128138960079428 
-0.5163083712338505 
-0.05539363884111147 
-0.5165735683364869 
-0.6914021649029006 
0.5301434329459479 
0.006342537062136154 
1.248241578595964e-05 
0.6026588407299015 
-0.3427480341430529 
-0.4001169713683979 
-1.128356251083659 
-0.7423688861134559 
-1.222550811532812 
0.1205199856251976 
-0.4215563093673916 
0.4145811439332694 
-0.0973922314753181 
0.1991212655689457 
0.3034901189752265 
-1.022372722678108 
1.124303320173616 
-0.02441482171394069 
1.464878831630964 
0.09304630634609687 
-0.2075470115939192 
0.3440564849454956 
3.21264634781905 
-0.3118127761211664 
1.631855905213972 
-0.06578558116625161 
-1.168060630554987 
1.950377089118358 
0.6385108905153858 
-0.1005872986071913 
-0.3823543257982319 
-0.420218727960415 
-0.6524907263026865 
-1.394623412372116 
1.773750792949296e-05 
0.03664109542911151 
2.035490734036226 
-0.7665118357618765 
-0.5747728746565114 
2.567486702945113 
-0.1732232286622537 
-0.7830003066304572 
0.009785469313301163 
-0.367754006931469 
0.2006421001878051 
-0.7669547215248708 
-0.1832059541832063 
0.6711208432495515 
0.3830897739709103 
-0.3535855381707262 
0.005919737191132144 
1.935940562354062 
0.196109471896365 
0.9807365717195697 
0.2231674670974111 
-0.1587631280363282 
0.3628424943896055 
-0.4349353827897433 
-0.1801228875028877 
-0.4491740172926371 
-0.06826578212903406 
0.8842156421579671 
-1.11363376693094 
-0.1882322721966624 
-2.616228957003463 
-1.792356814002311 
0.003449833086434459 
-0.9444145035239347 
-0.3918922661239526 
-0.1088969419494235 
-1.409905653622423 
-1.188694008594049 
0.1265904863764616 
-0.8724035333166932 
-0.6206595610621708 
1.053099526799499 
-0.1398843334456894 
-0.4719624927293659 
-0.9211717824368901 
-0.5243213415473766 
-0.557538554289708 
-0.0505004144347543 
-0.5246718723567519 
0.2044494161388387 
-0.4963865556554219 
-1.363131690731409 
0.5403054340161282 
2.132422483404682 
1.167799638068652 
-0.04195985467317106 
-0.2360455308570419 
-0.8860465138593734 
0.6807373465427357 
-0.410119655789205 
-0.8267538302022206 
0.1923549996576847 
0.03786764311899824 
-0.9903484822952607 
-1.475107213719616 
-0.1593904591600416 
0.1067152081533278 
0.4146088372109683 
0.6298657016333771 
1.163560168160228 
-0.246402681588147 
0.1141786776381751 
-0.3488261539949017 
-0.4691258062260917 
-0.05751007443567158 
0.09170369505861477 
-0.2338996866591709 
1.389191085509034 
-0.4836750757820866 
-0.344934432075837 
-0.2190200775516299 
8.673617379884035e-18 
-0.3666872579275567 
-0.5450265244821801 
0.4877738359281444 
-0.4006963255884212 
2.69225660323324 
-0.3514880048299473 
-1.382943053697799 
0.01564534997146531 
-0.1480646763040887 
0.6685082427765551 
-0.09293135758691297 
-0.5014103865371426 
-0.2456807509914447 
-0.4478090875851947 
-0.4138996217795842 
-0.005943876262594223 
0.1081045667076035 
0.009864988057097243 
1.272521207857009 
-0.3793805419832318 
2.336521713178445 
-0.1564508962667661 
-1.670590633387615 
0.814262921426307 
-0.8667340831992753 
-0.1015179645627426 
0.1765520899329608 
-0.1414684019453892 
-0.1126746266408243 
-0.8658208442707351 
0.7065028144452511 
2.122736509938017 
-0.1571003014755073 
-0.4990321419761282 
-0.9777692328865757 
-0.1775205971704792 
0.7055250774203068 
0.725271900409572 
0.05403046136682887 
-0.6111236846218029 
-1.117780378084229 
0.2510211182041662 
-0.5410200588313564 
0.7103739871683126 
0.1956921405511978 
-0.6029118651432166 
-0.2798238990923548 
-2.291208277388692 
-0.06197793698143034 
1.830381927562739 
-0.2363846431427765 
-0.5504102342695566 
0.2808750427638388 
-0.2773791847299333 
-0.3558494847947176 
-0.02886016489625945 
0.7650798026087132 
-0.6666182591719946 
0.2565598988241971 
-1.777508040238846 
-2.012095121958482 
-0.05524046098384756 
-0.5936283101042814 
0.260469982272184 
-0.04534621770287457 
1.658864150157248 
0.2397634036150249 
-1.773335035533347 
0.07132594982882479 
-0.2678319692230709 
0.2316939210576935 
0.9902012719915648 
0.01777875297191326 
-1.269006567380637 
-0.1405435186825822 
0.1850384167229418 
0.1754584878690353 
-0.7224907432425836 
-0.5063729495791277 
3.604701012759966 
-0.6297635235166034 
-0.935604529568118 
-2.413710121679142 
0.016414516896616 
0.06512555668385292 
-0.2165002673026497 
-0.8610584917521203 
-0.09718524594135665 
-0.6899131673549026 
2.018061156986509 
0.01738781039738952 
-1.358092267808586 
-1.27033835006185 
0.4410547315932238 
2.708290733210197 
-0.6824397051513452 
-1.325666986711001 
-0.6097204782721644 
0.3718504779125679 
-0.2061234711092091 
-0.9287581580609233 
-0.09574532322947812 
0.2748857595531558 
-0.5428696697401335 
0.7739504781834263 
-0.8538184511691038 
-0.4852637983031051 
-0.1853994199794109 
-0.2090503218212918 
1.328130364006522 
0.1297004387149019 
1.256030156644327 
-0.8892470426066764 
0.363602173013744 
-0.1517174804719155 
0.6917690789360996 
0.1427215539526475 
-1.206689526396447 
-0.06861198175092602 
1.14672719395266 
-1.507038628404095 
-0.6110925799429752 
-0.02006824570630659 
-0.152896744712553 
-1.33304530936303 
-0.7559380856771423 
0.5796088327643589 
0.4904206528688205 
1.660243565677105 
-0.1927306208095597 
-0.4486987047442734 
-1.066081014386981 
-0.3724451190587751 
0.2610621389340069 
-0.9054826063231098 
-0.5695086446129716 
-0.6939880933084177 
0.178402889821949 
-0.178719043094105 
1.036763970493029 
-0.4518690119357553 
-0.8567643961406871 
-0.3251032875008636 
0.8106488979195734 
1.289109544080012 
0.2365400155907867 
-0.3234499752727215 
0.1570868836211468 
-0.4664393630757463 
0.3165375626571307 
-0.6213101556450358 
-0.2971064036138343 
0.08636875860915055 
-0.04896858891475213 
-0.3606303439535764 
1.386417286749226 
-0.7127299644231344 
0.1991853601262935 
-0.6732972771782976 
-0.1895101750169369 
1.447921918628877 
-0.2025693162704426 
-0.2352057099493159 
-0.2163858733100443 
0.0008509922006144202 
1.961563895821019 
-0.3231106886586032 
0.5722686624325396 
0.3012375853107455 
-0.5282047290258166 
0.9814039824447585 
0.2331230308359088 
-0.8933225858491205 
-0.6255077060386414 
-0.9194847289023814 
-0.5101977185262502 
-0.5981420674810299 
-0.2305702593919065 
0.2264083851376373 
2.41907269073996 
0.9884269798874176 
-0.9934602254312269 
0.1657621348842168 
2.380413239519552 
0.08221694267125824 
0.3707376694488721 
0.3619538446928942 
0.3672831407008823 
0.7291258220581264 
-0.1284283861759311 
0.2156345755164434 
-0.7930352072941399 
0.6608823600704649 
0.1532801794898741 
-0.08065283822886976 
-0.1316846515400528 
-0.1623395384709851 
-0.866251040708068 
-0.2283340023458605 
0.4578756812628588 
0.189162271066871 
0.2321216292652763 
0.2212592917895309 
-0.05749048723411187 
-1.041974658679091 
-0.3842010643699909 
-0.7462567178665724 
-0.2456694425385428 
-0.2027222502017564 
-0.2010969559118861 
-0.7464606569736808 
0.6284029259786874 
0.9989146319465918 
0.2105065617101599 
0.6284899616712001 
-0.2534542840578352 
-0.4819697056629493 
-0.3508850997107552 
-0.608304542145916 
-0.5124558161526307 
-0.5227160242570141 
0.2604828352225542 
0.2977441302031733 
-0.3821906675775512 
-1.094981309984913 
-0.5401251077018604 
-0.4035620190449273 
0.6828078124476527 
-0.386516575063271 
-0.4763843507452134 
-0.1806702486083546 
0.5468629777060384 
-0.6220905403078977 
0.1690607946391155 
0.02021637238489542 
-0.4501949817098363 
1.582356925012635 
0.7237557114140242 
0.301376515376384 
0.1547518659348957 
0.5709053162558626 
0.2949588308462977 
-0.3045236441787826 
-0.4363460794714204 
0.6380074163171309 
-0.05977999982074079 
-0.1735948555952901 
0.2440825342304794 
0.2348557961595107 
-0.7117664448842156 
0.4263551568404703 
-0.3558771351203164 
0.5056853216843746 
-0.1742278170831387 
2.034949858455156 
-1.234671575222642 
2.248204480085513 
0.6652613086415199 
0.2443197068419134 
0.541949527742753 
0.3001011055074449 
-0.5208639888533251 
1.184548480545907 
-0.5289050495795758 
-0.4742443395063916 
0.1304230037628822 
0.01705716934561312 
-0.7468661769981373 
-0.4004545971686138 
-0.4835324269728767 
-0.9639814442796097 
-0.333713587235271 
-0.2815078224843865 
-0.6434073193601249 
-0.7568964246467158 
-0.8008915575565376 
-0.1691527195093095 
-0.4245345873133978 
1.720958115354382 
0.05492289104621497 
-0.03865688792225132 
0.915669481356206 
-0.325809638799639 
-0.2184680088187943 
-1.171103819680336 
0.405934579692807 
0.3456409041789764 
-0.04941039172275009 
-0.4358867263724068 
-0.6181496426574796 
-0.4420337500261348 
0.3402758029082582 
-0.4150869428712672 
1.490842238863114 
-1.515636930159721 
-0.2996855289318545 
-0.6373310726371192 
0.8650188388924643 
-0.1898186997869182 
-0.1208051400882513 
-0.8355795274999932 
3.259230350103881 
0.4503888043526264 
-0.8225788261332289 
-0.05412510371579158 
-0.07709375211590729 
-0.4012302009731935 
0.3768969735952937 
0.556906712411285 
1.953136230168909 
0.3745075205092738 
2.98462717667019 
0.2729277657797488 
0.9125265222802841 
-0.3451648182566255 
-0.3732478190327589 
-0.3545167557141335 
0.4167635597794302 
-0.1992020897088848 
-0.3209255367910314 
-0.1794606501665223 
1.668763666000877 
0.2535913080397129 
-0.06495236827966656 
0.326865819791218 
-0.09084325457837311 
-0.7823669284598492 
-1.577021123642215 
-0.8536958647042658 
-1.493410309876032 
0.3443367702761774 
-0.5183317323830794 
-0.09184719830300928 
-1.430842194276387 
-0.1487999567287536 
0.976939413693545 
0.8913738668324894 
1.97050964531626 
0.1803198325823776 
-1.636591461568375 
1.240813009248307 
-0.2710867379100582 
-0.5173487954271144 
-0.2750859954826675 
-0.6881321779214111 
2.489177432367411 
0.8663869120287718 
-0.7551368248896317 
0.6830388761535864 
-0.1075823288101449 
-0.180538271630172 
0.07504463398706568 
-2.400111083940125 
-1.225453153610352 
1.06762853878885 
-0.5927737448049811 
-0.2225955496643078 
0.1169314752371227 
0.7659757591240465 
-0.4327692800649771 
-0.2835034762595718 
0.1229224613332574 
-0.4918928439252502 
-1.145760343123222 
-0.0654362740785642 
0.1228235076215031 
-1.557753135621798 
0.3308037300385981 
-0.1531662563956537 
-1.031324793283631 
0.7568474244258798 
-0.5193991818318973 
-0.3524237161432582 
-0.5172283226058757 
-0.06825444474698629 
-0.2650745156332484 
1.257304739598524 
-0.2465639164382829 
0.6189815231530791 
0.05542487116416644 
-0.01043285405212025 
-0.3697404631287648 
-0.8608483918826443 
-0.7383794552047941 
-0.1592372995039072 
-0.3135786710149641 
-1.04483110090412 
0.6186362665240142 
-0.5951089843276088 
0.6214293350547558 
1.734454076934251 
0.008255702790707373 
0.6120160742191638 
0.5478145027820718 
0.3824361350695373 
0.6760156509833762 
1.065353916571986 
2.305236857451054 
2.723232954358032 
-0.742406839041434 
2.512874045828622 
0.7561432201279853 
-0.3449614579159798 
1.02001126792909 
3.754459060852091 
-0.7103282717194529 
0.3523912719352511 
0.6426120916635059 
-0.07246583434759905 
0.3025848431974205 
-0.3501569410230154 
-1.37356419233041 
0.2895586139960915 
-1.110462772076624 
-0.3889387256026328 
1.435939294529402 
-2.257072632976379 
-0.2548892241886165 
0.2546649491719998 
0.1521982381201213 
0.605551995064272 
0.268207403876749 
-0.5922972959212662 
0.9785190500865191 
-0.1746872856234827 
-0.4559450000893883 
0.1304890015716257 
-0.1996273121364001 
0.8834731969097196 
0.372156127557049 
0.5796281204435529 
-0.4746636257865376 
-0.07377315973961508 
0.01077635906071697 
-0.1895165677377485 
-0.3533282150503761 
0.938040786556212 
0.03679513988608368 
-0.2694938653983089 
0.005440048760183708 
-1.007813498338503 
0.1814905386670244 
0.4373106974057682 
0.1161384298584624 
-1.139847942310962 
-0.2331586683971288 
1.059302845224049 
2.268921517923761 
-0.1021698371091046 
-0.4998585263913738 
-1.163505187891827 
-0.5800048270250672 
-0.5994582070416442 
0.6475778087942604 
-0.07670932209026413 
1.603500253769356 
0.2192101440077815 
0.1758098710912045 
0.4306840937101345 
-1.68209110426822 
-0.5605843901536814 
0.166588138743022 
-0.1049965821664776 
1.116697059863866 
2.607678199367029 
0.4477500866379154 
-0.4600142663543974 
-0.8656810512362874 
0.06301999268181722 
-0.4784730392303961 
-0.1922605001887507 
2.942276389720965 
0.5332195275896 
0.5280688277432799 
-0.00135901026009358 
-0.6904734206346728 
-1.032150122312684 
0.542871691794334 
4.34477246806682 
2.17013956202424 
-1.418990157547333 
-0.02328458218442453 
-0.501053120057478 
0.3578114558541413 
-0.4952531547603108 
-2.356183928963747 
0.7829703664968597 
-0.2304065679975414 
2.299193725408671 
-0.5166717748117079 
-0.06223456444707384 
1.749247881232515 
-0.5382162302137509 
-0.5823498851012376 
-0.2129333253841568 
1.332622639615115 
-0.4914379055213602 
-0.2167567554615341 
0.08168802388832849 
-0.5176322425368788 
-0.7985866397338464 
-0.5309263791052563 
-0.1225474417572489 
-0.2395735378495195 
-0.2441031110054637 
-0.8983842901284088 
0.5377570158654359 
0.0031841310458797 
-0.5631976332940933 
0.608687275468513 
-0.706906207732876 
-0.5524966096981119 
-0.7402450638050986 
0.778875053607936 
-0.4966323456807759 
1.553480121961711 
0.4494104691271838 
-0.7676714021636696 
-0.2935739930612503 
-0.04018316154924405 
-1.055541599060228 
3.896315792798836 
1.0943390596989 
-0.2717113183114511 
-0.2719172016648081 
-1.560674679346055 
1.724014915578464 
0.6183711392907436 
-0.7280888485349304 
-0.8836484866836867 
-0.3398102807616278 
0.1843335757588874 
-0.6883615442247396 
-0.4588566243197723 
0.03039948764351168 
-0.5861124237236907 
-1.787701143380949 
-1.751369296745386 
-0.461243476131688 
-0.2380542758920513 
0.1735387322894792 
-0.7504763399928981 
-0.1891157999240785 
-0.3432523609467675 
0.5533967543751278 
-0.5978083374327685 
2.69343033546824 
-2.711519914265732 
1.061010314323871 
0.1614897622602588 
-0.2569963938841576 
0.3584044476107263 
-0.5794386230825409 
0.1607852129190596 
-0.1335930318254429 
-0.1501715747378361 
-0.8967571206398993 
0.5473841485790575 
0.08915765967042498 
1.042214296001572 
0.1631429428298176 
0.237425458244157 
0.3256497790904614 
-0.6914872842783883 
-0.3129169026177761 
-0.6284617707247349 
0.03996251592435792 
-0.2485281293407581 
0.100433820672325 
-0.3625121109161171 
-0.459396422029782 
-0.06313097831886925 
0.2592974590021933 
-0.1391153620358017 
-0.7294999335332768 
0.5985663466823712 
0.9111709028579565 
-0.3669988488893695 
-1.338786140534817 
0.06094769698957597 
0.4836457949380152 
-0.7080968252266487 
-0.09686065931144515 
0.3926968611934166 
0.2043288788641655 
-1.117505582581207 
-0.4781856250000087 
-1.11653922176768 
-1.034528715431837 
0.0911783632734514 
-1.061932689820807 
-0.04720252728567428 
-0.22610445350594 
-0.3187081469588826 
0.4698571675667922 
-0.08629085953546077 
0.5581037397806039 
0.6767873768094874 
-0.196363923107045 
0.9939606944858523 
-0.06138814957667963 
-0.01810884350419309 
3.911667274313491 
0.1124671956598287 
-0.6263315725477292 
0.6100595310582907 
0.03900381378765804 
0.02572859202982412 
0.821362347003578 
-0.1954128037893801 
-0.3110216086524634 
0.4161864375694079 
0.874435663052178 
-0.1623544761473089 
-0.2572021766496025 
0.2289164819825138 
3.280321981062071 
-0.3910693588142638 
1.04245611262121 
0.1010874436893996 
-0.1019897008661254 
-0.292290518544446 
-0.422399287423683 
-0.8216654854263267 
0.2472488268191543 
-0.2968274019263627 
0.5188656393910032 
-0.1172453462138905 
-0.4934980731240151 
-0.3254558386197258 
-0.2307612817840869 
-0.4382822404980789 
-0.1028251892543064 
0.2570392997875658 
-0.04731200048319096 
-0.4503542432226478 
-0.2680287851784746 
-0.03934100170199721 
-0.3215271560360112 
-0.02719078592326821 
0.4407335332115157 
4.603747737586968 
-0.6646176878772995 
-1.127328813488544 
0.1884197896515034 
0.8224536885250014 
-0.09521349747088914 
-0.5509449069971422 
0.169212566678736 
-0.4277945166309782 
3.030742515106554 
-0.2938991241294577 
-0.0600943963943352 
-1.566632591298466 
2.504019407630359 
-1.429766250791503 
0.924112286496214 
-0.8090012289478007 
-0.423827048185103 
0.08141371342434067 
-0.4125773742590395 
-0.3691511094964109 
-0.4820110638869018 
-0.2780292538406923 
-0.3925474218788898 
-0.8794786972888504 
0.9587038077057609 
0.5750823270079164 
-0.3476961317689239 
-0.09358096294184269 
-0.03366975795951064 
-0.1389917207632311 
-0.1805160291736036 
-0.01021129786192501 
0.02393796529632732 
-1.104772799140726 
-0.8975441108943905 
0.5084665574408783 
0.2079660307793746 
-0.09875864125672697 
-0.659535262647272 
1.184487239406484 
-1.621452276565051 
-1.02687675407439 
-0.5325395492555504 
0.3075903984401174 
-0.4427748280573744 
-0.670829629970491 
-0.2713755488493811 
-0.1317049942603975 
0.3951820482127757 
1.562110187620628 
0.2253582100231755 
-0.3610844653543483 
-0.7597840027611541 
2.081720004871005 
-0.8651459481070022 
-1.199666987169989 
0.09623604117437788 
2.572752402194353 
0.3710005057677584 
-0.4758385471990884 
-0.3572703901917319 
-0.2281847390212686 
-0.005351588690821176 
1.719677237209269 
-0.4627100478481281 
-1.368728445048202 
-2.02973927518175 
-0.1285724939775935 
0.7363793714356138 
-0.05439430032372697 
4.030389278740528 
0.6108122823189222 
-0.9582239546409543 
-0.9998870078138071 
-0.673642219646911 
-0.8477313407734299 
0.7466380624515199 
0.4600734041332442 
0.7577278490150147 
-0.3158082644487714 
0.07721853372491815 
0.8618195711867996 
-2.074708694285338 
-0.2763304394397145 
0.1633575021576016 
-0.6863564096934509 
-0.01722691761816652 
-0.190271118529336 
-0.105445524576596 
-0.1232435075583214 
-0.02429145774981403 
-0.3292081119492298 
0.7078114389674949 
-0.1982095160509471 
-0.8548176343140265 
0.1157702533720192 
-0.9188335302444337 
1.745158674316272 
0.7231008822928806 
-0.2875598823950525 
-0.3591450161463537 
-0.01829567071532964 
-1.070060458607781 
0.6502755537006998 
-0.36629349254401 
-1.211129604930572 
0.499420321657623 
-0.01147053511020275 
-0.2980195996545456 
-0.9798124569635637 
-0.6877417584309274 
-0.694256297175324 
-0.4360790625799468 
-1.047887188469438 
-0.8732827727472593 
-0.989139819399111 
-0.6464604092548608 
-0.497478246781122 
0.2636585203149356 
-0.3699291396286641 
0.7832618241713291 
-0.4576188797989387 
-1.507443523087187 
0.6807464783380505 
0.09659915997925402 
-0.3462906279670267 
0.3838415359337091 
0.1954732340206293 
1.012903040161542 
-0.04933509474848431 
0.2795333898581941 
0.05031713636946782 
-0.1909691778991429 
-0.05011026672507764 
0.7923850997109032 
0.5125707425025711 
-0.6442753185933063 
0.4612532253698602 
-0.1879191847241126 
0.04313745144868456 
-0.8353875767530615 
0.1762865986977501 
-0.4275688388419029 
0.1375595780937829 
-1.824591665756226 
-0.2612138046442904 
0.8909975949051794 
0.4664034096383188 
-0.447335884422819 
0.5650484117948341 
-0.1763849091142181 
0.1782868309217966 
1.084248306044486 
-0.135238073830508 
-0.9578148906502133 
-0.8578580937286064 
0.4617304642860278 
0.8505861317038254 
0.8778020463606047 
0.5142736352067621 
-0.667333849916716 
0.05052427625140187 
0.4050566721898014 
0.2091383137948132 
-1.916495157778751 
-0.9332628340247382 
-1.853420808599419 
-0.5081367315905264 
-0.5946904519724322 
-0.8391829632494658 
-0.6799589800189261 
-0.4100454491374875 
-0.3969777530323272 
-0.6525992534946928 
-0.6188902027959878 
-0.7792864792582882 
0.04517937421357787 
0.8189520588308086 
-0.5500053409867202 
-1.140112213526029 
-0.3816160425566525 
-0.8004241391401148 
0 
-2.236892818837509 
-0.3763745251887604 
-0.1616697643978389 
-0.04688913183786775 
-0.8388047447696262 
-0.9115438151885181 
2.571076505328799 
-0.6005182612933799 
0.5774790647007539 
-1.068887491486854 
0.7560749984117774 
0.6314923389097856 
0.2295874376021864 
0.9658470554586547 
-0.09579898889725991 
-0.1386125224656874 
-0.539593053325486 
-0.5325678850987167 
0.9082912352877954 
0.1042556238039616 
0.6969226816670112 
0.9272142018055949 
-0.4713689333794457 
-0.4555481065430956 
-0.1372990875378726 
0.03094024479472176 
1.174046182413131 
-0.1798471918874416 
-0.1555418011745787 
0.095445819208941 
0.9667664634545593 
1.110194314791304 
2.083376407822006 
0.6696364592694475 
-1.133997677969579 
0.7024774766561384 
-0.3703282630178368 
-0.8347512697046893 
0.4136691094310367 
-0.3800548500983341 
-0.9020873305834801 
-0.1978794243113002 
0.2082865827940573 
-0.3767663395286 
-0.6503957624747148 
0.3150116153236444 
0.5155182260935605 
-0.4624785408890711 
-0.5476318533588183 
-4.276149691460262 
-0.8459692596615516 
-0.3189728672912146 
0.4440472137932306 
-0.1598339191389061 
-0.866769016851944 
1.76543979499712 
3.317630115857557 
0.07506744059575274 
0.5391566679487054 
-0.6083644212973713 
-0.03492819727501818 
-0.9195906483445682 
1.091829528228919 
-0.004484667097140622 
-0.4459413447163174 
-0.2656737512299876 
2.847767354052721 
-0.2611305274620648 
1.159019271396368 
-0.2470279114618102 
-0.1140858659605044 
1.050338403974613 
-0.4302408607727077 
-0.5345002531894594 
-0.332297052196853 
0.1989464753988594 
-0.05538566427011585 
2.01927967416283 
-0.6115812123718847 
-0.2531318562968514 
0.3031221772502587 
-0.04754973854626096 
0.01467623100780621 
-0.5270391087952092 
-1.220782164513138 
-0.126876716619254 
2.506861521034965 
1.091170856119295 
0.4933796328354796 
-0.21488884500736 
0.6163265711673573 
-0.6229554969776846 
-0.4128731381329557 
-0.4900585683517154 
-0.1951992483713862 
1.351733549184163 
-0.1345423879303308 
-0.365945337018492 
-0.00264339681959792 
-1.471320359752931 
0.8950439788963752 
-0.2355898188869848 
-0.4667722408117826 
-0.8070233879107991 
-0.1315696208324856 
-0.87151411872312 
0.06616274488381135 
-0.1333442995176575 
-0.08521566173665886 
-0.01556371441160894 
-0.7264950656096547 
0.1189972299323355 
0.1782894317890873 
0.234075723934361 
0.05503770269187621 
-0.2686759782638961 
2.197003058259896 
-0.2443213242758438 
0.1342199491990965 
-0.445630680950455 
0.6683601582479686 
1.103167076768995 
-0.1084682732425625 
-0.8200671984843468 
-0.5436484847582657 
-0.2188425379221348 
-0.5628589850403463 
-0.3198902072425963 
-0.3999476171196173 
-1.016783941563659 
0.387547959287082 
0.1756717581569484 
0.7508415824542416 
-0.8359902587299367 
0.79727285717256 
-1.336005633389899 
-0.07077169194216268 
-0.9094334282873944 
-0.06810061140802037 
1.214371199110207 
-0.7074132010812917 
0.438240308759325 
0.03164953923079196 
0.3366969598122361 
-1.358615528221056 
2.071442803811154 
0.1516509292696206 
0.1940962148597934 
-0.8342779600866748 
-0.7197416752139905 
-0.3015998387730033 
-0.5849452594689827 
-0.9757277897003824 
-1.546232234708069 
-0.6976508396450601 
-0.6554494633808338 
0.2781377272767064 
-0.5297934902474498 
1.12042793717795 
1.053466759081448 
-1.358049674040082 
0.2023495196496218 
0.3759826729072738 
-0.2639971863036885 
-1.044264966894965 
-0.03995476878603765 
0.2800747349223706 
-0.8947427273324308 
-0.1034690896331113 
1.661249243468923 
-0.646954421252625 
-0.4195286945810557 
-0.821735537375483 
0.05579328215896286 
-0.3943785519248877 
2.424920090912475 
-0.7784602459156632 
0.2287722599938435 
-0.1262661971139185 
-1.030050881760102 
0.1100464180996703 
-0.3510687108190563 
-0.04245076911046732 
0.5359321944899608 
-1.09272426042415 
0.5680162231101448 
-0.2688774899011308 
0.2783861785447382 
-0.7980581328486132 
-0.4113821994266295 
-0.3104178233761083 
-0.2529514524135018 
-0.133742840793093 
0.3955216129853722 
-0.535764207160395 
0.2071221482300708 
0.2066311544510427 
-0.2608597473711791 
-0.6667467649706789 
-0.2309176300722608 
-0.8196547672967193 
-0.2905720238708417 
-0.725726633539555 
-0.1534308442336406 
-0.5196563828978109 
-0.275735574253278 
0.599886726183833 
0.8064878639934314 
0.6152860381097135 
0.2169430905739026 
-0.1262697939663352 
-0.3467201708673328 
1.025645105801938 
0.1081784572983286 
-0.5479542199272373 
-0.9236834252167362 
-0.4556537625489399 
-0.1355866965537182 
1.591702467410279 
0.8527880852456583 
-0.1228953834610994 
-0.2833857173840241 
-0.2371035879676328 
1.380690076649902 
0.5823066980255476 
0.5112916360916295 
-0.4447223809369587 
-0.5118247060904492 
-0.4746007257989658 
-0.3661064634039668 
-0.4396921208987128 
0.6232475815633328 
-0.5908230400584679 
-0.317642370191835 
0.5204488873830587 
-0.04161718930404931 
-0.3427168894030133 
-1.348598491372919 
-0.1978307909206269 
-0.1628874177950156 
0.07732261022436007 
-0.2271408257935221 
-0.02559600439121735 
1.019971897951313 
0.3752132002748941 
-0.3467518523073677 
-0.5394946866929514 
0.6571125718846922 
0.1910510214924985 
-1.378656291862996 
0.1666188377013638 
1.332775553760863 
0.846013835660307 
1.273859201920613 
0.04170753038715887 
0.4767173361688753 
-0.7426877975073729 
-0.7447987922577359 
-0.0940071887122941 
-0.1400232988954805 
-1.726250998889735 
0.4690880006478245 
-0.7377036631896554 
-0.4247375575854113 
0.6573369436307009 
-0.1802242635534872 
-0.7380457726831134 
-1.038191097265225 
0.5626717716066568 
-0.4563131402167858 
-0.6221279814635551 
-0.1290175868610884 
0.504111605351466 
-0.468110627849179 
-0.5945468937760084 
1.625981808653366 
-0.1464578072174262 
-0.2749428645236515 
0.09371749387192209 
1.64646615853447 
0.7338813849510656 
1.104063810109807 
-0.2826261351914168 
1.101780061300031 
0.3663989836948252 
-0.8510240449523564 
-0.02686415623961793 
0.1315749496831049 
-0.9651468268945824 
1.462143426864408 
0.2481354696379859 
-0.9907561946429697 
-0.4130888025474285 
-0.2582306889323057 
-0.04472661236179778 
0.3161462301741685 
0.8345374216978017 
-0.3412533214506555 
0.2439315787316383 
-1.138676280313405 
-0.8695002246991035 
0.1671694953411973 
1.233798131009083 
0.3346708610049172 
0.2863750799502061 
0.328771235959287 
-0.2125803513272513 
0.1974578001658047 
0.7858388444619751 
0.2808103838769905 
-0.4193862824978493 
-1.163850892082799 
0.440302837402942 
-2.209152432251841 
-0.1724054230899802 
-0.160387194397556 
0.8174922344285936 
-0.2387387758164154 
-0.113463613870284 
-0.6374880381159371 
-0.4353824498087455 
-0.5884365350546295 
-0.1708105198041761 
-0.004633407968574396 
-0.1767729017682842 
0.01913894013580523 
0.1276762152417151 
0.04081999434878718 
1.688831785649685 
0.1718410990484044 
-0.02486862415781979 
-0.4988058675119402 
-0.1460975891449472 
-0.8979095530963942 
-0.8595580364380163 
-0.6991445941639953 
0.2930593907410615 
0.7697133826156897 
0.5440503783311837 
-0.006561832833233147 
0.3563879965387649 
-0.03916342652190594 
-0.187834929177987 
1.10085760625021 
-0.1097286207498073 
0.756460425308077 
-0.7289284050680004 
-0.9320909120487584 
-0.4445865198220904 
-0.8149683216571573 
0.1954462746902301 
-2.19093543395733 
-0.4782674249023156 
0.07451195879389001 
-0.5028783050767451 
0.8713619412067355 
-0.03198224033610259 
-0.6324733595086515 
0.5728141563814295 
-0.8088130811490252 
1.139395331173308 
-0.4068624638571726 
0.2057201029601378 
-0.4645612816735127 
-0.00506146089642638 
-0.2684948722627941 
0.08887556970459612 
-0.1287065681585758 
-0.6182689240498521 
0.193726325284146 
-0.1853800602007846 
-0.3928191215931283 
-0.4107625996508493 
-0.09229066347210704 
-0.3975956791862083 
0.2968607870402419 
0.8894304094761867 
-0.3311586050688365 
-0.03149434401538311 
-0.01274269231756127 
-0.01925223893523407 
1.306864538101579 
0.0592905708526237 
-0.188932133870949 
-0.5467546829439989 
0.1946336768864881 
1.756152264855101 
-0.5622900315765815 
-0.02277750701860971 
0.5306436578781062 
-0.02230502385340988 
0.4081522580526832 
-1.179849590347371 
-0.5460724644015265 
0.6475482625500962 
-0.1288114743375984 
-1.81700684787242 
-0.1833100807992251 
0.7630230174022503 
-0.6425801595593286 
0.9450794924690323 
0.3510920924605502 
-1.950210131130317 
-0.4504065589441957 
-0.2755020582059464 
3.220764061336246 
-0.4012675547224864 
1.347422061312293 
-0.2474995197178278 
0.2182333222351699 
0.8821443594535607 
-0.4628882396258913 
-0.3752178545542748 
0.8459674516102365 
-1.052502283837207 
-1.095553932892947 
0.6951703128110335 
1.264641442735163 
-0.628017567228883 
-0.5118078411226694 
0.38104588443294 
-1.008798390701716 
0.7858529760600129 
-0.01060517418601255 
-0.05279826262318417 
1.181969949960581 
-0.2279500310191468 
-0.580531650210059 
0.2091511502765409 
-1.043628080608269 
0.1117707131654065 
-0.7214319851474459 
1.252254623030137 
0.4837835029457769 
-0.5732468587175245 
1.578663417007446 
-0.8284190935749075 
0.426923691949863 
-2.523348204895432 
-0.1850314617085649 
-0.2999635777283973 
-0.5465353949114288 
-0.08749529647284705 
0.6287803490312748 
-0.2591390955281884 
0.2522943072525733 
0.02330633548622419 
0.1524530418205872 
0.298449357576779 
-0.08747854931508711 
1.400485806507236 
-0.1837884588684726 
-0.5494468434908754 
1.086506281615731 
-0.09417887987015115 
0.4073007876864344 
-0.4629668748403097 
-0.4913937652792139 
-0.1923756613924487 
0.4076588362056437 
1.56142213967598 
0.09142416098584229 
0.04581673712919194 
-0.0205367660187416 
0.2603474337509982 
-0.5126360809901396 
1.129793737209872 
-1.999207164349898 
-0.5768222260137885 
-0.08374503293150815 
-1.341802746240183 
-0.04318574764970564 
0.1108578130389072 
-0.08959997850770986 
0.2550721830228042 
-0.5275949845644405 
0.09467135084631574 
0.3669869437041096 
-0.775781278635297 
0.9654453994565507 
1.755654731843404 
0.1258129789682079 
0.496079824410084 
-0.1839531401125798 
1.62322328454193 
0.2743856690049932 
-0.2386168867146708 
-0.2338550302963584 
-3.521881719956081 
-0.1678801093004684 
-1.088005224160249 
-0.03561548792427972 
0.2342917206072991 
-0.05302183644843286 
1.268502549331038 
-0.7724333337440661 
0.4742980427651914 
-0.4160771385868757 
1.766091621545845 
0.425617506325744 
-0.4221173478346357 
-0.6473528029179293 
1.454097502801706 
0.3224516956283505 
0.3565693351861944 
0.03167163972588383 
-0.2819079031472161 
-0.2708995846009596 
0.5085373515127433 
-0.5293991518869401 
2.012346942282042 
1.218839908632742 
-0.3672150982757691 
-1.722142002063835 
0.7002751256306634 
-1.058783206324991 
0.4618587753876187 
0.1271411728666065 
-0.6355527759693513 
0.6771382722183408 
-0.09046033590058256 
0.728365596141038 
0.23464513980815 
0.598748863697467 
-1.047118544789976 
-0.4044857304120929 
-0.4672603730924922 
0.8719780592273128 
0.1775637240424494 
-0.410727676463542 
-0.5264996662163823 
1.049928986080872 
0.6731270996501196 
-0.4437052562072896 
0.06905060660778818 
0.1627408525192119 
0.02187126831535727 
0.0009097527944615419 
-0.243444642464503 
-0.6176046299077509 
0.4732675032016069 
-0.3177941479810177 
0.01142031426758439 
0.3047601664992081 
1.380165453828243 
-0.8913026917249843 
1.475726577977599 
0.3462017575341637 
-0.2179140244661443 
-0.4762744525796114 
2.014956263365956 
-1.159572620079137 
0.644466241625575 
-0.5777422333934287 
1.419768799672759 
-0.8107208701820658 
-0.8407308281387347 
-0.1224229926992897 
-0.3383131421509444 
0.5540998279731389 
-0.1540689947788152 
0.2333548017568496 
0.2894943377887 
-1.581671681895111 
-0.5217928173109961 
-0.2930600901805392 
0.2344220464174359 
0.04098598943463469 
0.3907421514237225 
-0.4580916202186376 
-0.1228028659223465 
0.6220785978379486 
-0.3414509787806737 
-1.5547280667654 
1.653605390668756 
-0.000637988407067526 
1.737095406602234 
-0.5861110394790285 
-0.4005070450381152 
-0.05430002415567561 
-0.517545526437428 
-0.07540490392999998 
0.1899863498908738 
1.0968221692805 
-0.5989148273796198 
-0.9969139846257183 
-0.2373363822161473 
1.611850752065432 
-0.5198233099079668 
1.294249801924213 
0.03622852398046214 
-0.6127314923481516 
0.01336355326699178 
-0.9239485364423755 
0.5689478484785958 
0.01143673198509965 
-1.416909765311658 
-1.515773159611295 
0.2034280382911034 
-0.09179177652124881 
1.701477030730465 
-0.5292147724057563 
-0.2364230771149811 
0.5151015334326727 
1.173679605844708 
0.3929290627395943 
0.5577898633882862 
1.036289194918339 
0.3679882555564948 
-0.864535952396136 
0.09187632648613112 
-0.06470525136340832 
0.01982165400312197 
0.1670985832360335 
0.3791430915823466 
-0.3040721236673152 
0.5250346324363785 
0.02386839945244064 
-0.8639080647201104 
-0.4173322878585866 
1.584601907257374 
-0.6707870906907016 
-0.501065247336596 
0.1103100382230717 
0.6745528260355557 
0.1840893091476196 
-0.03583374387635822 
0.2213646180949052 
0.4410349340704354 
-0.7759683341493677 
1.421491869963525 
-0.2690953455996485 
-0.006533323754104898 
0.3278948104436193 
-0.4381679517836008 
-1.109505901429473 
0.6236557231767234 
0.3417205236029374 
0.6811912512916712 
0.02020995646404656 
0.15807657285594 
3.102428156642452 
-0.291835351003233 
0.4188723308888421 
-0.1047398244674389 
0.140039458196449 
-0.01799638039929393 
-0.0364654155646612 
0.06311938450292642 
-0.3534955226405923 
0.3416187689032777 
-0.4287293579497935 
-0.6493166790092159 
0.1193185338297094 
-0.1955991883313903 
0.8664491176517896 
1.500439778625016 
1.161543965250821 
-0.6721520036991411 
0.6131127072412363 
-0.3027183842953031 
-1.060792273879876 
-1.248285832108333 
0.04633974350592282 
-0.5981756768432215 
-0.3094794567032384 
1.06413596231187 
0.1947528194520217 
0.8516225505732773 
-0.1706398931025181 
1.229288041029384 
0.4645999117966487 
-0.1365582589197853 
-0.1039478378764463 
0.6092595633982961 
-0.05846906147861565 
0.1813286576864028 
-0.4151199912971485 
-0.06954021869866495 
-0.4519658736751634 
-0.04430268807909933 
0.04629873129722824 
1.642438739917267 
-0.3816268088924338 
-0.3092274885207639 
-0.5554219557048299 
1.359368434493249 
0.2447726635953431 
-0.8237308678483772 
0.21163536011367 
0.07785123563152388 
0.9784444717820142 
-1.242495156726947 
-0.7018094391215325 
-0.7602247196505367 
-0.1992075754586084 
-0.3350051309864964 
0.1941336247762868 
-0.369028510252694 
0.3885154555962417 
-1.117021478583819 
-0.7670470952696293 
-0.01948684814799619 
-0.08669384460948504 
-1.609133358552984 
0.234468177261996 
-0.407126727611101 
0.0450010032454529 
-0.1592579699733625 
1.095756216982019 
0.7201388575673777 
-0.4931403658464996 
-0.08968370550184401 
-0.5696831035012955 
-0.004910465032096584 
1.380951167687268 
-0.9296422193364002 
0.2172961531910503 
-0.2017965377146873 
-0.9483985763958611 
-0.4948315678025537 
-0.7890974124045794 
-0.5381005367910096 
0.03846244091216056 
-0.0721617848262176 
0.6342948958213395 
1.111307346274348 
-0.1721400412007695 
-0.6188395402261416 
-0.5423575965183591 
-0.3491546706603626 
-0.2417163148722323 
-0.4726295782370386 
-0.3689023044039386 
1.936888848141664 
0.1352503040548533 
1.558485087876504 
2.015142478866527 
-0.1066916078058111 
-0.01589123095720272 
-0.9482241455359348 
-0.4978587835092937 
-0.1792545677861355 
-0.1493298431079286 
0.08247574468972603 
0.280345479048951 
0.2327324796556083 
0.03361647538840604 
-0.6265416967848825 
-0.07516540191089278 
-0.2821972473113085 
1.747111879133025 
-1.030501765242203 
-0.6622380636928027 
0.6411042786268695 
-1.91070343440124 
-0.07987416324367529 
0.04551944985859569 
-0.1078845256031017 
-0.566267088038958 
1.000113814721059 
-0.5380413271822223 
0.3014465725765608 
0.8224892215906883 
-0.4336932722716456 
0.2259793611241825 
1.759085697749338 
-1.143492827532839 
-3.706821718720423 
1.244286841193958 
0.4757590015950559 
-0.4643589418572281 
0.776434369636395 
0.1556517726475016 
0.8443910440450135 
-0.2570056635282187 
-0.421859972532965 
-0.1830800460059686 
-0.4871327326927405 
-0.812817563931361 
-0.3024392496701457 
2.310550159253195 
0.1362788891860316 
0.7773585827859043 
0.7553264393298866 
-1.007788164059794 
-0.8086301723299438 
0.05239602686541234 
-0.1401117041038031 
-0.380762774531647 
0.740818725496759 
-0.08439512628628215 
-0.313469476886408 
-0.7142189919849504 
-0.1028651871993553 
-0.1490486325191717 
1.698572410241455 
-0.1050858202706196 
-0.5435421092185664 
-0.6105788846438737 
-1.309785656698112 
-0.8131242086230592 
0.7156584382741468 
-0.3704335764902164 
-0.1578099747990723 
0.6483940370210104 
-0.1561696057786214 
0.6459247015644576 
1.199030461263956 
-1.11833597412317 
-0.528386078166981 
-0.09944344364953876 
0.3431698369355459 
1.013086173621409 
0.0974361348588472 
1.152008221785762 
0.2254017112465594 
2.214102808647273 
-0.052361096858185 
-0.2367998022026293 
1.72285654128504 
0.5447009074996957 
1.02873081654879 
-0.005042887539184099 
1.603588683273899 
-0.1650509237477949 
0.2076225029470226 
0.4127505237437588 
-0.8475457201188742 
-1.092605023065871 
-0.7563010021524867 
-1.244200304241438 
-0.1370830891668248 
-0.1758827112835233 
0.08358329131706554 
-2.742623192320508 
-0.392503308008168 
-0.4017421085508375 
0.5700625374357881 
-0.4516954256087474 
-0.3253639417940826 
-0.1880756319272704 
0.02123624345263725 
0.217909284534599 
0.8771434017207668 
0.2475605990897901 
0.7716097201174066 
-0.3604586875548881 
0.2377661355248161 
1.144777013536428 
-0.5427765762825772 
0.2800195595524124 
0.1379397918659998 
1.10184021600363 
0.1369534115854101 
-0.01921524074017674 
1.493892885519237 
-0.1525174774367118 
1.532405334834106 
0.2966632554759993 
0.7389832979190435 
-1.283301338697673 
-0.4826552951522948 
0.2542391904757562 
-0.6045046545287581 
-0.4736119290241532 
-0.5792946024747149 
-0.09379006794726509 
-0.0231515226701215 
-0.03573630254275039 
0.1097968520255834 
-0.05164828583447811 
0.6251698841323834 
-0.3882565824512619 
0.1593350336620252 
-0.8555743362161751 
-0.6758577467422012 
1.583351639308629 
-0.6105448136099939 
0.6157947990416657 
-2.293876443133436 
0.6362708053502324 
-1.037694498776953 
-0.1860091486007289 
1.035707920709836 
0.06238587837608543 
1.834234965855911 
-0.3969334838457758 
0.005340944504325793 
-0.2527004580968568 
1.057962001821887 
-0.04687679663285042 
-0.7883194971752207 
-0.4384014421283399 
-0.7382508869066527 
-1.293489107680196 
0.6013500711066025 
-0.8186021188911151 
0.2532981701984502 
-0.03212085854160632 
-0.2522251097182625 
0.3770475840976631 
-0.4936174253137051 
-0.4193124954142517 
0.1726633715825136 
0.8933561554649018 
0.005102166079821897 
-0.7665103910131599 
0.5987187663806161 
-0.374572037821825 
-0.3949531562844766 
-1.546798561734483 
0.5345213096173984 
0.07091598109751979 
-0.8619382048859794 
-0.4433639265365489 
0.6902570738233182 
2.007626269831607 
-0.1172304390570413 
0.7391991736884013 
-0.1217526752260231 
-0.6652095642593916 
-0.9108591584371339 
1.716869397261663 
-0.6054622765283918 
0.6244399710066204 
1.139222425312463 
-1.836015441550009 
-0.231511242394558 
0.2950808166704303 
2.577346240420825 
-0.9547027584684131 
-0.2070465047385883 
0.6590543152813696 
0.7830583636099293 
-1.298449831342839 
-0.02281421465377324 
-0.4688656366394946 
0.169229316318769 
0.9147625660539777 
-0.7331785696132462 
1.025102298489612 
1.425278494333689 
0.6376345067551804 
0.3090600109521709 
0.1520677502043355 
0.5511726502802051 
1.053600938823026 
0.9184726359595807 
-0.7412339564497953 
0.2223374618455279 
-0.7349352025969333 
-0.548989050405467 
-0.03764064849354858 
-0.330872621191883 
0.3560618504963931 
-0.01502092652305444 
-0.08066190064004052 
-0.229032767450724 
-0.3176224411984036 
0.05710209315630252 
-0.007444009044449668 
-0.7319623529343638 
0.7296734799327697 
0.4801311001479714 
-0.02510474671153207 
-1.512770127610306 
-0.3005005636193569 
-0.2259340149849998 
0.1954721869992029 
0.4291321242827809 
-0.8775596072886559 
1.309322459831882 
-0.2503196401024992 
0.371340558955177 
0.1997639530468328 
0.1334045553219679 
-0.4523153240081144 
2.944739288232612 
-0.3180526258708915 
-1.534518196122034 
0.445232338612134 
-0.5364207961798995 
-0.1700594601004521 
-0.2336101755911037 
-0.5858734999032615 
-0.108232115441961 
-0.1111544404149569 
0.7656142743166854 
1.647994299066796 
-0.2569766212031085 
-0.9300345754374848 
-0.9000545383893761 
1.878667826955932 
-0.3027575783755528 
-1.018114024733824 
-0.05627462485026479 
-0.4977212640342985 
-0.8232203180012519 
0.7945234537075669 
-0.244652739812186 
-1.240991918412818 
-0.4815919683020081 
-0.5987732710813194 
-0.7670074020775541 
-0.1220287799741718 
0.02424670013779945 
1.610630499262087 
1.08315321790271 
-0.3774558061559032 
0.429511155838113 
0.08921594301608132 
-0.4318536419918628 
0.2475663065986244 
-0.1001098980793923 
0.3674316373004797 
-0.08560701057455505 
-0.1917027344348263 
0.3950706327464966 
-0.3794798578728446 
-0.1222720638033311 
1.142681576104861 
2.394219049857655 
-0.2541385839745157 
0.1561936212473707 
-1.172522620439203 
-0.4959726423770023 
0.9944830953186845 
2.735852338702162 
-0.4009808663720127 
0.1355625058236957 
-0.7947554680716072 
-0.02252535479128924 
0.482375475134626 
-0.3264841454921275 
1.664701039045361 
0.9103963079008091 
0.5755499026240976 
-0.2042575134645771 
0.3964126930894352 
-0.1382465410164214 
-0.4513518075339855 
1.083679586885265 
0.2221766239838029 
0.356798979878905 
1.562771237110682 
0.1043264461482204 
-0.3341198945686967 
0.1042744417311545 
-0.4616032839825905 
-0.7910150690355857 
-0.02312351469599523 
0.2840101585103033 
0.2131853207019739 
0.07073496082607145 
0.1838963196772671 
-0.7711165303277093 
0.7475023861562339 
-0.8290730618250066 
-0.220374470901008 
-0.4029358037363071 
-0.7657645118896678 
0.3059861790153158 
-0.2100547171740836 
0.9108849889746737 
-0.2550623601412154 
-0.8989066327048828 
0.2618352466219906 
0.2400414736597065 
1.336731372855528 
-0.3441878404377545 
-0.1193840702727058 
1.05714997055131 
0.7778620924519684 
-0.2815707628797231 
-0.08473227192996155 
-0.4998427818990919 
1.225853099228669 
-0.2988131519776396 
0.4265163866721489 
1.967053890142575 
0.9501888538175811 
0.935036771879139 
-0.3479729788784267 
-0.2609253636907697 
-1.446526891626706 
0.922393990434187 
-0.006771375962068922 
-0.8276357724115264 
0.6829892940127735 
-0.2716655384665579 
3.170105676924359 
2.597459069037527 
-0.592879902004364 
0.786742937858435 
0.08782317551294752 
-0.6606108197341207 
1.034812519925605 
-0.4474798531560055 
0.1715476184201979 
0.5152018466236626 
0.3216716934328002 
-0.4468188063219997 
0.9660643568527397 
-0.2276125083073907 
-0.1947765304132224 
0.7778758212802193 
0.7952372400826974 
0.5097528657014156 
-1.023007107415918 
0.1294188707587975 
0.2982822217757379 
-0.5577156110022495 
0.1118444901885864 
-0.1960304734428531 
-0.4934779135175236 
-0.4797246692840084 
0.1799558862863781 
-0.2360297746973595 
0.8625897709705623 
0.6174987705299328 
-0.01631861521039844 
-0.54397442864769 
0.8501066679833934 
1.010657372797765 
0.639936367095318 
0.1458252715789948 
1.212823636828489 
0.5291212841458847 
0.1826536811397807 
0.4631872256208088 
0.1173896051158635 
-0.01479131633340766 
-0.02971371259058639 
-0.06840563366251817 
-0.1953003836321106 
-0.7969954297002554 
1.800003876646159 
0.01106542237502823 
-0.5136833592599983 
1.5501725127382 
-0.6951192962356993 
-0.8068723753565265 
-1.449387662035362 
1.471319975125561 
0.2003628831300243 
-0.9750582589414152 
0.827783003210864 
0.3926380048935423 
0.02822617559598381 
0.5313673716628062 
-0.3474296470731291 
0.0316361788970853 
1.706399956988602 
-0.5458565415146105 
0.6650133391945601 
-0.9438966949723545 
-0.6431247695551704 
1.010345910265106 
-1.06095156831238 
-0.7454201521878574 
0.233467473400379 
0.1101548460552892 
-0.4398670664682925 
0.002732235030167664 
-0.1927175297247603 
-0.344956616053846 
1.75595476896782 
-0.6217030319357211 
-0.5726306067670137 
-0.1539030368254069 
-0.2963765244876887 
-0.4561234133878245 
-0.4680883599631694 
0.03033924297897106 
-0.2052473046747853 
0.3892706437946929 
-0.5900206103347599 
0.9353076629545553 
-0.8991252895928964 
1.233733198032617 
1.530171899243006 
0.09679611532305771 
-1.713079710854838 
0.02522211385404297 
-0.2605481128199146 
-0.9602366458689392 
0.3974850961080089 
-0.4565343533572977 
-0.4819074805558292 
0.2823950701952554 
0.3120466156978904 
-0.9313850812225201 
-0.3582016065701363 
1.349269006435328 
0.7449826971550844 
-0.8086205019252495 
-0.2693922025929876 
-0.01982813936705791 
-0.2153811873186835 
-0.07451714911777574 
-0.3092258224435848 
-0.06898559721501316 
-0.3181616374833032 
-0.3764146014038575 
0.3827267592845113 
0.4342505111052614 
-0.547361097879823 
-1.253938031199789 
1.198651981628757 
-0.1157457171556262 
-0.6416504922642171 
0.9876268044261465 
0.2277793090459899 
0.01808580442869973 
-0.4000555022864563 
2.489707855986747 
-0.1534389208906653 
-0.3710739031547824 
0.8372353789241076 
-1.189236681745564 
-0.5762807720093902 
0.412610502635532 
-0.6343755695405656 
0.032162019636672 
0.3822178005037172 
0.05894159910214054 
-0.0004612931733263064 
0.5069709775162343 
-0.4222322897779724 
-0.4329205034980331 
-0.29964264339068 
1.469115697549161 
-0.6177127525681673 
-1.26216516651026 
0.8689015311039567 
-0.1668301156958404 
-0.3508069327808927 
0.7280871512908333 
0.01360112408170186 
-0.3815132498881053 
-1.653932938335348 
-0.2230355794748797 
0.4852452054082391 
0.1051182742221893 
0.0456510248253818 
1.021138209210582 
0.5796542075386723 
-0.6702303334938354 
-0.1199849354960261 
0.8717022216399477 
2.726311280482483 
0.1553040638723849 
-0.6854034099308699 
0.3513993031775744 
0.04690080237188274 
-1.029480582349662 
-0.1947263372875622 
-1.908113839463381 
0.2001744855089866 
0.2279809732397601 
-0.7992322369161327 
-0.07112733602733848 
1.109913378356099 
0.08044145356910617 
-0.09842258012987568 
-0.5003368377548933 
-0.3118345006220308 
-0.4377889813215065 
0.3389955084250402 
-1.100133901377893 
-0.4626732848552891 
0.3530423152157766 
-0.1235630842006717 
0.623943415840122 
1.868497572654531 
2.555297955356266 
2.286818917671421 
-0.3534688308052479 
0.09945402771972001 
0.6190354339388334 
-0.5009409183646016 
1.301489247428333 
-0.6024638447895792 
-0.09083083000438887 
0.7987938216562199 
-1.295634913132225 
0.2027852898762742 
0.4499469112574452 
2.014278752200418 
2.651150043482357 
-0.334759752162935 
-0.3168025384798468 
0.4845703680255862 
-1.226301602253977 
0.02818027259013346 
-0.3631088400306378 
2.255994040547636 
-0.504137429220095 
0.1758716800401859 
-0.7455551175441607 
0.2394472671223935 
0.2043945917371592 
-0.2034261264145484 
-0.3807920307717516 
0.9680077843041363 
-0.8149892729574559 
0.5976960572717087 
0.5043856769459575 
-0.5941277004807211 
-0.2862452771315523 
-0.5476949213119526 
0.3107554085599349 
-0.6905022377894457 
0.8331020002765364 
0.3906094541624157 
-0.9812852926380196 
-0.7608805655974767 
0.03716751000777938 
-0.9085623591375792 
-0.2455728056181192 
-0.4813380518809524 
0.9649450550414825 
0.2213225860659288 
0.07006475294385611 
1.202630439181032 
1.175545039188213 
0.1275190224022119 
1.124613473793047 
-1.07469321090743 
0.1437053218822811 
0.8551915061468954 
1.371538871634743 
-0.02590417663726358 
0.2068518222761633 
1.391389386992339 
0.3844713338719978 
1.156106757224667 
2.53091291587225 
0.02990381469044904 
0.9664535736492035 
-0.3090192021518828 
-0.608028209236913 
-0.4468352018409309 
-0.02294047613887037 
-0.04183946845520512 
0.4577966158556329 
0.356431373030335 
0.396135878974619 
-0.1213198971232205 
-0.2940148739465885 
1.089158078660226 
-0.1306622425017094 
-0.4146604861219868 
-0.674175056586901 
-0.235516346383291 
-0.3115708234628574 
0.00317284576386023 
-1.141305170435315 
0.9768857074681651 
0.06111080251425404 
0.3884316680674154 
-0.5938113776320333 
-0.344001573225213 
0.02826362409445311 
-0.2566218993144351 
0.3119512097400894 
-0.0540984316682518 
-0.220104768815879 
-0.1414710711157353 
-0.27211909116865 
1.159328638579987 
0.2092821031963724 
-0.1287798300406545 
0.07871088128764317 
-0.5294272117673231 
-0.3764413012445245 
0.7677180239287349 
0.08332768202042268 
0.06918777440860394 
-0.1775125587225551 
1.242585543589335 
-0.08117543932468126 
-0.303588927720354 
-0.09573569190313963 
-0.1502007392551487 
-1.330288949736066 
-0.292806588443848 
0.5542641399593086 
-0.4845445635531395 
0.3266272178662284 
-1.285971078532723 
1.248956046316022 
-0.1707201315589992 
-0.06230808570301923 
-1.165872460721051 
0.7106185388564196 
-0.511373454910477 
0.02317582170665919 
1.238399807131843 
-0.05541575924769192 
-0.05993725163470328 
0.4351256079550463 
-0.04092292973710421 
1.082678666293758 
-0.1223030002643973 
-0.1491618948680714 
2.777293411569974 
0.009254418716911085 
-0.6498142659402988 
0.3050900677798638 
1.438850927325561 
-0.01315073521107322 
-0.3568196416398522 
0.7644934092035111 
-0.606899666180564 
-0.5029648930653537 
0.05538231257933887 
-0.3124114703194238 
-0.9440366655810839 
0.7349222051570824 
0.3482848093805077 
1.452005277284705 
0.1321089518225894 
-0.251243378819799 
0.1454458187070971 
-0.7193389956601872 
0.3557416911482122 
-0.4871849518607909 
-0.9214784097547385 
-0.8084109884032898 
-0.5970824393896862 
-1.081947461016668 
-0.1230443397266109 
-0.3776571112698491 
-0.0540041163072587 
1.319662924367601 
-0.7003541944126315 
-0.3153197310501136 
2.063833854616571 
-0.2278979045481478 
-0.8555453613356754 
0.1171611777588771 
0.6469830028532483 
-0.4509792305851554 
0.02986867171830346 
-0.3523261586488361 
-0.3522394363274885 
0.01527639610530706 
0.04460938552957294 
-0.5440433467051126 
-0.08553717596670223 
-0.5573996222481414 
0.6660014713149757 
0.2196181358113517 
-1.037802620479629 
-1.891628315233421 
-0.1099111229556913 
-0.5626158106324739 
-0.07547656425251821 
-0.07313871428754994 
-0.1406068271723885 
-0.2162121169134622 
-0.09604793352628278 
0.8136283969071618 
0.2187426104476982 
0.7526168772489882 
0.0360418117553671 
0.4789995224747442 
0.5042928243432452 
0.1720202198057321 
0.3832653693764132 
0.6364740127874545 
0.3846504278121353 
-0.32133646406762 
-0.8638576962594856 
0.2432945482817992 
0.4645678268703476 
-0.3622242471011415 
0.199723361383407 
0.3809246020869403 
-0.006118078564475103 
0.180551833638224 
0.8188298530052694 
-0.1644576989450102 
1.229343337931694 
0.04558581634063968 
1.294089078027701 
-0.0659041216754617 
1.285024163708835 
-0.1488547799631125 
-0.04398890911045067 
0.390075512376875 
-0.2539166408515175 
-0.8003556367400153 
-0.280181281268387 
-0.3025308508173279 
-0.27372697166511 
0.8573373937715785 
-0.1394406246164879 
-0.3794783748473415 
0.2319343780357251 
-0.07383541812182701 
-0.09137992016625615 
0.6037170852916386 
-0.7188686689512532 
0.6700179042118581 
-0.9443042181051681 
-0.5533200987325259 
-0.02734631789234478 
-0.4109796796994881 
0.4145742029453151 
0.3687865032591901 
-0.7549308949523603 
-0.9273340432671762 
-0.2612967010472919 
0.9166430103979438 
-0.1492303300822337 
-0.2820501424700374 
-0.5912406663299066 
0.8858445325928602 
0.9870443059840105 
-0.07459588603767185 
-1.188481689079813 
0.005016756132461134 
-0.5692351696620118 
-0.4829652208549425 
-0.8924578490433475 
-1.324534183722152 
-1.094668234986739 
-1.891301346253575 
0.1454858289575429 
-0.2194688079702844 
0.1764968667268451 
1.092700454123307 
-0.9154786039571888 
-0.3365861112926957 
0.9376193957708991 
0.4137901103617654 
0.4398979749324614 
-1.211891281421287 
-0.1232395356744998 
-0.808095656782953 
-2.548921528801346 
0.282803155313934 
0.01079394781334369 
0.742743688418169 
1.194860994631894 
-0.147173281673984 
0.8846341597684615 
0.7661624697330562 
1.247977218877447 
0.3548871405032989 
0.1898627437907467 
0.5492456159561363 
-0.2651259166424033 
-1.4241816689677 
0.02629776018106261 
0.09601654571349622 
1.61306317836802 
0.5942559096148623 
-0.1516345129985348 
0.8224930294033932 
0.3118859824607798 
1.081031025993689 
1.278016223305428 
-0.5624927230126473 
0.6993278203557676 
-0.1957996555246712 
0.009314213906095685 
-0.6492766940148873 
-0.9140079505259269 
0.2034299221662309 
0.08706192542057078 
-0.1980916881371548 
-0.2163648500916358 
-0.04548668966153485 
0.4862721741589607 
0.009388402402170098 
-0.4136679550820669 
-0.5581895073840571 
-0.2003145966902273 
-0.09965026547217798 
0.274438484598219 
-0.4899902475026445 
-0.02588219289308296 
0.6330607178566204 
-1.317616968643339 
0.0544477756920255 
0.6849367439128171 
-0.3868718064649532 
0.2340886433231921 
0.8481411250325939 
1.109716517962096 
-0.802528894698333 
-0.2464199909915257 
-0.5565196487835838 
2.374062825846299 
0.5885718024615942 
-0.298334322286339 
-0.494014056146756 
-1.010812427544907 
-0.1243158137107213 
-0.3928125493832936 
-0.6658062930931032 
-0.6394140902976092 
-0.2052481125722603 
-0.4967098519405693 
-0.3058462569302123 
1.221437460922039 
-0.8188196237722714 
-0.8806093862082308 
-0.4020909557792701 
2.920047023938332 
1.23822665242519 
1.183653068954474 
-1.013630020590102 
-0.5194641421160323 
-0.2771584732481766 
0.764019418607076 
0.2763147126414425 
0.7776268270992227 
1.441688334547283 
0.8467099301931232 
0.4389616964286788 
-0.1681988162011502 
0.1929716568907596 
-0.6688835391499343 
0.2968311778907666 
0.5489106663541541 
0.3987586741263233 
-0.2162604515240627 
-0.5998596192735594 
0.06170681093774177 
0.2186917522041846 
-0.1059862115843719 
0.1271110183164466 
0.8097610800300767 
-0.2592346006569872 
-0.9428076414992221 
-0.1492162598694108 
-0.5739118239565457 
0.1536631053010816 
-0.08804364897320945 
0.2597624972758519 
-0.2868510344281597 
-0.2358488781262625 
-0.9293797387313032 
-0.08557080465941946 
-0.6011553990556712 
0.1104847102148292 
0.4792570014245267 
0.6800135815573348 
0.8611898192345742 
0.1918752538450129 
1.356346542711344 
1.63488821769903 
-0.2102780604707971 
0.6786328761314803 
-0.524475808277902 
0.1749268042908603 
2.44719677019734 
0.7023589946855363 
0.2700185181400215 
-0.4535548336039439 
0.4859778251370142 
-0.6179851253210137 
0.222963052553582 
1.17220515498381 
-0.262559933763814 
-0.4747478713316471 
-0.4614842345657169 
0.07565655511417989 
0.2313136923332673 
0.3438631979485096 
-0.8962910381860913 
-0.8129240196425246 
-0.08884922897876125 
-0.5426509974385557 
-0.2036293880076276 
0.3125035392251254 
-1.118141282720575 
0.6286688143911 
0.7909606648315702 
-0.6569534348811203 
-0.04839536971553481 
-0.2453498785977128 
-0.12352318892172 
1.078308696791977 
0.3774457529309573 
-0.8864023247934272 
0.1314546511330387 
2.617280001494631 
0.01330232120996377 
-0.1692294984393536 
0.4046266859436081 
0.7679351954104853 
-0.8725831881559528 
0.3145986958293697 
-1.138842489282248 
0.958465295699497 
0.1689364274881464 
1.214895279261807 
-0.1332025087729022 
0.03044074044330144 
0.7000316175468685 
0.6335609334935549 
0.2326033489845245 
0.1306605388322173 
0.2736869917448426 
0.6342791171720259 
-0.5785811765054875 
-0.4357151407077163 
-0.28201049130242 
0.3463372129747012 
-0.6760622640081615 
-0.14962234522716 
-0.1734530068325239 
-0.2183823870673567 
-0.7061849301143405 
2.025560664008646 
0.7627996037437615 
-0.08346947185143176 
0.04887043206015654 
0.778622610718999 
0.245766073047522 
-0.4905745096883435 
-0.5480071338036085 
0.3637554557371445 
-0.4739695493299828 
0.3401359872899389 
-0.8338203980525648 
0.5212505192587695 
0.3380037720004831 
-0.1033878848119891 
0.547928680535044 
-0.1459162878068598 
0.4422247771602177 
-0.7369293046614787 
-0.3744400534861369 
0.1572634929126379 
0.4673597006609188 
0.0659461883359498 
0.08559892017070533 
0.2675903191885209 
-0.05472797176983271 
0.1904278300475345 
-0.1114545716917093 
0.2873774311701434 
-1.082775074535935 
-0.09429783474382404 
-0.9932677766922975 
2.274558088316056 
-0.08580613869187657 
-0.02691180099850121 
0.1802981612659522 
-0.2695441687608904 
-0.6143842839051775 
-1.636351810988675 
-0.1398768031453035 
0.9349423539139561 
-0.008438949860860957 
-0.2839369737127823 
-0.1947799853319093 
0.1745470149347365 
-0.08860559965749001 
-0.2181904541923045 
-0.1158049375274759 
-0.1164726425706057 
0.3925995436085184 
-0.3300467356450398 
0 
0.01562836774846186 
-0.216437445941966 
0.5796555081855272 
-0.5249421324086553 
-1.061002730917506 
-0.272378337389036 
-0.09710637167062387 
0.7691001567044174 
-0.423843643896411 
0.7599236406557998 
-0.3262016783325646 
0.2543175858528836 
-0.2660177387383383 
-0.255495550047082 
0.3575435965931434 
-1.75205851903529 
-0.3462690390115247 
-0.6157337475987505 
0.4832129389969921 
-0.4154095294425058 
-0.02827237311967173 
-0.2856005910168996 
0.05497466443779105 
1.08499569940722 
1.179669943428682 
0.123901826178029 
1.502933775557317 
-0.3001116901123189 
-0.2487076313633247 
-0.4690637836468026 
0.3277263427971582 
-0.3277614134062163 
0.01417101310236444 
1.421863488885087 
0.377452910815937 
-0.1566594357906413 
0.2581950848109733 
0.03279152016599431 
-0.01833022371146789 
-0.4143447678800333 
-1.176153766017215 
-1.289489562518358 
0.372981231411431 
1.42384318104681 
0.6413255873663302 
0.5379828929708257 
-0.4454295050941819 
0.1635907633725482 
0.7367615258026432 
-0.3885930533043229 
-0.4011505937307717 
1.21994540394544 
-0.9538550852534293 
1.088760866461047 
-0.7418415107929791 
0.5014049071898642 
0.7508189241179277 
2.908689946209021 
-0.4949752441702629 
0.002217994822751055 
-0.01418506716830751 
0.6941887309307425 
-0.061086417797329 
-0.2981167775096449 
0.1168919101741145 
-0.07920858824945844 
0.8335998867120042 
-0.2811147487838767 
0.2625878355875573 
-0.6539711463375868 
1.292261929244881 
-0.5423248322327732 
-0.6014475676792506 
-0.3446570189809774 
-0.07208650495220374 
-0.08103737375753597 
-0.3655918591001168 
0.3034747293265428 
-0.2990296833566191 
-0.03730852004659947 
1.37344274832783 
-0.0477696363989869 
0.6192355126803532 
-0.2807903542390636 
0.9666886196794691 
-0.8731516325987182 
0.2501465151753207 
-0.1025873370829165 
0.473469647941677 
-0.7482521239618131 
0.1424659236886409 
0.7735033672574325 
-0.2776008643822794 
-0.4968558189675603 
0.173942921070632 
0.6264378045586492 
1.545412050880182 
2.038441666658322 
0.09379814872407562 
0 
-1.053623059409484 
-0.5976547054073214 
0.156183306079215 
-0.7008614400232981 
-2.547344518893978 
-0.4262818369312806 
1.169682490123289 
0.03038272213926407 
-0.5421417497532116 
-0.01591153269623564 
-0.8292627032744047 
0.2955052518092993 
-0.92970090874222 
0.4593572475435118 
0.2289874092679693 
0.2536666431392262 
-0.3434155197486894 
0.6267926768067666 
1.048011741718043 
-0.84457878799787 
-0.2980285536385633 
-0.2037918724959477 
0.8103157350158605 
-0.6575855854870337 
0.4159880756372941 
-0.2374691890216729 
0.4050819470136148 
0.2195391988556132 
-0.779727014402038 
-0.003849621729579956 
-0.7518414103311092 
-0.09846460685976473 
-0.2032273508047868 
-0.2390229924766695 
0.4329337693012507 
0.4630350388167844 
0.6620494392583102 
0.03405651834316292 
-0.8444524211704004 
-0.3767376989877017 
0.5549517410684381 
0.2708951918720335 
0.7820269696343727 
-0.1350808780437224 
0.4376254966853197 
0.06518656221285406 
-0.07522633959142448 
-0.5435207906625197 
-0.4380468570159071 
-0.2012623195221362 
-0.1236603090138269 
-0.4913222268490953 
-0.1595385945530346 
-0.05004250620494794 
-0.3163229156705647 
-0.5383545050554567 
-2.121888561209368 
0.758264901633143 
-0.2400908907822933 
0.2235701340597993 
0.5057136823156431 
-0.9813718661900649 
0.215491655159652 
-0.04128125376959189 
-0.3721495574696227 
-0.2414435167491676 
-0.07082952673101163 
-0.547864268044994 
1.364355424827627 
-0.3045133246557781 
-0.3148725606728484 
0.06766518197617533 
-0.3113240894826941 
0.07145175374830044 
0.5081474522434123 
0.003778451199751536 
0.5915797463816038 
0.5082976470297551 
0.1011951811383354 
-0.01132188088617244 
-0.03575723315681196 
0.2165594663837373 
0.5292091450586677 
-0.6826707264641514 
1.079613470949501 
0.2202848397683379 
-0.1101531487564197 
0 
0.3283237363125292 
0.04615716985818987 
0.1322400449001889 
-0.03105899989225734 
1.075227297550703 
0.2382346039806232 
-0.4475547229127291 
0.3214730068426914 
-0.3443636137260106 
-0.006381803246466572 
-0.03888445009861411 
1.223756464953861 
-0.2654869532131069 
0 
-0.01821866508969937 
0.5483654079896066 
2.225688590566372 
0.3616004228595384 
0.2613412104991198 
0.9527675287024786 
-0.1394856902323894 
0.2653959747935648 
-0.3392057177991402 
1.48322363148658 
-0.07061145991984701 
1.11911705062766 
-0.1425022572975227 
0.7660143686958851 
0.3907594760198688 
0.2102046814146281 
-0.309873966089145 
-0.719583917108619 
0.1202091326916465 
-0.03538255415157264 
-1.463275700778264 
0.1115654488752514 
1.137412987370778 
0.4362823405094116 
-0.3788359955299358 
-2.013618411076622 
-0.302367524698496 
-0.03741435960993616 
-0.07635869257580943 
-0.2127637470627291 
-0.2662050711621442 
2.569469091004834 
-0.1191011798855977 
0.632417676372074 
-0.3637418061209725 
0.2351030087148054 
0.3244668008306935 
-0.5416610548278654 
1.422581510982994 
0.1320647173476797 
0.4748242630472492 
0.6433529305708235 
1.287704599321776 
0.6975059451347948 
0.2529161464197029 
-0.7768665314554623 
0.6246444858214147 
-0.4990615297759374 
-0.3871601387942383 
-0.6469852747182805 
-0.1005220931182832 
-0.2979919309057525 
-0.01937922980009364 
0.6406543674706118 
-0.4606268948072354 
-0.3687349467746242 
0.2535976492635965 
0.9830538819376758 
-0.5923578932084822 
-1.135804448066533 
0.621562433657707 
-0.2389441995301344 
-0.5609374520962642 
0.1374113826198198 
-0.4516010636282574 
1.819514866038784 
-0.55263696776074 
-0.793964068939482 
0.2205586149394627 
-1.001527413647813 
-0.2360334387946206 
0.2709689071934546 
-0.4228480206966033 
0 
-0.1446202595932952 
-0.3847484905977228 
0.5991720922618154 
-0.5297195787212728 
0.9692737581580301 
0.04529373052591638 
-0.1359191047545376 
0.6618150038931435 
-0.1990192796434528 
-0.5473740962205635 
-0.04769054969527727 
-0.723720289767801 
0.1566194886866802 
0.7766008509651198 
0.05751613116261709 
-0.6315661151321486 
-0.7639534700827572 
0.1131898106920142 
0.2320307684852485 
-0.6857007921611755 
0.3948098832043936 
1.038834411994725 
0.07237009678936471 
-0.01200652524436302 
1.26480176535593 
0.5054812228130898 
0.4857945896729541 
-0.2938580293828339 
0.02388160699344952 
1.325438537873368 
1.535108784385135 
1.589880173973647 
0.794716384807105 
-0.1405075860252784 
0.665137494219022 
-0.1157990774393068 
-0.1986273661316447 
0.3218953583223086 
0.07862666742739291 
-0.4361616748516598 
-0.9179984700890566 
0.4130014176786775 
0.230975345666628 
-0.3663515820962149 
-0.4732095265018129 
-0.1574427022912068 
-0.5094029849904974 
0.03769822940104869 
-0.1999370402065055 
-0.5176437020824315 
-0.4158720733254268 
-0.7418180656333168 
-0.1058087043454842 
-0.2432273184253035 
0.2611966747727562 
0.8775098456686765 
0.1363326872977678 
-0.1301242292319311 
0.2282791543561523 
-0.778833727277853 
0.2251615106890647 
1.317757932567529 
-0.3019282557291902 
0.01999125518344486 
-0.03201175381399814 
-0.4131464718324461 
-2.130131604562241 
-1.294020072365362 
0.0610948580855771 
0.4541992758870315 
0.5038496973805091 
0.9350079227669451 
0.1905133820065168 
1.318199543089208 
0.2724237925922273 
-0.1076564359068609 
0.757639447785088 
-0.0575162022661168 
0.5943629825388838 
0.9876711250041168 
-0.500611040339499 
-0.2942587825354965 
-0.07895472441058814 
-0.2276337670053513 
1.122351293846689 
0.3697394002359988 
0.8015938740410044 
-0.2961648733820558 
0.787089025692993 
-0.2210596771761414 
-0.5911562033458162 
0.9158114936918631 
0.1752862467104936 
0.3242748880670493 
-0.03372415654195805 
1.14495081683904 
1.082214003615374 
-0.2059609225889022 
0.4910726754693611 
0.1406632392406627 
1.396479730551427 
0.6892886785527725 
-0.2818418130622218 
-0.153573154464326 
-0.2442206083740405 
-0.5826563052570491 
1.949696432540423 
-0.3709283843493921 
1.397870527366156 
0.1294989476463021 
-0.4183083294699648 
-0.5162011983372452 
-0.2472954310334235 
0.9271937019215922 
1.303540611731804 
0.4142897468838249 
-0.409350638285005 
0.5147158606044467 
0.2964360822382021 
-0.536025518130663 
-0.07362404839946272 
-0.2415391527954367 
-0.4544400070511669 
-0.3117681275133677 
-0.04577256445588315 
0.509623781457144 
0.7380717269324354 
-0.1236117283449819 
0.3688502593155918 
-1.932634901954783 
-0.1090401792474166 
-0.1222111780799619 
-0.5890850532268587 
0.05121065748605242 
-0.1019495731887399 
0.1399287678044641 
-0.5167066490516811 
0.2455014393655392 
-0.3364735204429252 
-0.6263431238960753 
-0.2123196978501661 
0.0926834585363399 
-0.4936842024731473 
-2.076888206531885 
1.278863790123972 
-0.7015551374042069 
-0.9712032119776701 
-0.1968189828153079 
1.131400041777293 
-0.9972456135249061 
-0.3732238296935277 
1.103966771603029 
-0.05359608086092393 
0.06030758159529197 
0.04787113485841068 
0.2647665347378503 
-0.375118041735861 
-0.6580013294291016 
1.262014444499487 
-0.05072565953679573 
0.6691204906555612 
-0.4639482598807421 
0.373811704350569 
-0.6308701396815996 
0.5555615476268231 
0.06899316304948817 
0.1112859441788524 
0.1152635370013126 
-0.1749590824899722 
0.3236252646659192 
-0.7436482609230921 
-0.1148320774951725 
-0.912917291734665 
-0.2900415284186529 
-0.2194365910145997 
-0.6006999821405897 
-0.1393216087127849 
-0.1745334024881958 
-0.5094533475426773 
0.1915238702606438 
0.005420985988217876 
0.4357378155647937 
-0.8716810379405925 
0.5140481986593473 
-0.7299682911297869 
0.04125819599112855 
-0.3633865463093284 
-0.4454041609327656 
-0.1499986555188113 
0.2352988061846528 
0.3137791220422816 
-0.7598720598596684 
-0.318499725310844 
-0.3263354030380121 
-0.3080503242730347 
-1.117872100786919 
-0.2890670630412202 
-0.005775855974467586 
-0.124878251666989 
0.05489602419752373 
0.5052299321882251 
-0.6418121054039807 
-0.0698541950718136 
-0.5485563667033199 
0.6679846715536722 
0.2743301992575415 
0.4247837483504733 
0.1855189169885875 
0.04207684761285225 
0.1965303499306566 
-0.662001198296757 
0.1755757329363164 
0.4769243726683861 
0.001736209996961418 
-0.1855167640364562 
1.283264649731767 
-0.5293586279885962 
-0.5132556622566457 
-0.6710599885974041 
1.128013821283242 
-1.868177749596362 
-1.227728569974961 
-0.4565625308751042 
-0.3553440058452517 
0.08280874190230113 
0.8048101016198184 
0.3459220389844389 
0.7080457307257803 
0 
0.8379762870218812 
2.097865472376799 
-0.3952815298188561 
-0.3095955122562655 
1.506628732530786 
-0.3378613220424436 
-0.7906767365015451 
-1.203204706355997 
-1.022243369824414 
0.9677555487309414 
-0.3060537708693389 
0.1223452714722838 
-0.6879256382854421 
-0.5570160261339673 
1.682315460061524 
-0.6034783262418367 
0.133994365325532 
-0.1646692037782246 
1.282595368554011 
-0.4278801109978193 
0.5783526575713369 
0.6022595984385315 
-0.5541377472848555 
0.8671155158182891 
0.5022227606256011 
0.3649883814532964 
-0.6360073961600106 
-0.0848178578049138 
0.798888881703844 
-0.008274983553420285 
0.4007296957607183 
-0.2573796977795441 
1.919109188670477 
-0.3587059780175919 
0.3301195548975983 
0.206997622900164 
0.4428559517891558 
0.9232629701751898 
1.045553532606679 
0.001377395775709064 
0.4676421217591344 
0.1125520161577209 
-0.1215401730039188 
-0.6524671867400427 
-0.3323734164019432 
-0.2721103937075295 
0.1571797740516316 
-0.3487551835370625 
1.331884223302958 
0.2962940429214154 
-1.278558841202009 
-0.124426428918077 
2.560185810647822 
-0.8794570680181384 
-1.084838582727994 
-0.1847593652547056 
0.06389701354099969 
-0.7287085381858445 
0.3334820271759658 
-0.08715899688677438 
0.1403394868873603 
-0.7789469287624418 
1.130747095438788 
-0.350720569728962 
0.3062633046816021 
-0.1753554712738301 
-0.4107354368475847 
-0.3132989120766947 
0.2607174087337243 
-0.3508198327046755 
-0.2316894803302468 
1.404020422206826 
-0.2101902771220824 
-0.1154482971661546 
-0.1352789413963492 
1.383228926909404 
-0.06152850131957417 
0.008064541422619774 
-0.02342048907702482 
-0.4210452105340813 
0.3877666253741654 
-0.09534988611034678 
-0.1630239991302118 
-0.07215385100797593 
-0.1227777106763806 
-1.599770624133373 
-0.374931688914132 
0.18255350667467 
-0.6884701612056084 
-0.2290067464291322 
0.07086583901629009 
-0.1188505282890926 
0.316969889393655 
1.541485206605983 
-0.07542845649303047 
-0.5640102290902188 
0.3310275721914183 
-0.7250782082442749 
-0.2279371849433857 
-0.05543283594662757 
0.5045797400309572 
1.477849656954352 
-0.1880221387771431 
0.09963408388769208 
-0.3937351344031123 
-1.340688593998089 
-0.00843807713508969 
0.7594137598480039 
0.1701909000288769 
-0.1464612638359439 
0.002785814402488271 
1.213356904866029 
-1.59874604187932 
1.488971437519744 
-0.1082498846233038 
-0.5611386979238847 
0.1418441515247357 
-0.05317798451174531 
-0.6063742221365299 
-0.3688294844893098 
0.336622444852313 
0.7673980621658502 
-0.6979605184067872 
-0.1508166859792601 
-0.008944830998049429 
0.03513656891695287 
-0.765237987039305 
-0.08023172397418629 
-0.4050612438055476 
-0.5758332169970024 
-1.256004431704132 
0.04532186601982918 
0.007014716871762425 
0.141823939922836 
0.6709967904877098 
1.246405493943835 
-0.5366311261982472 
0 
0.00301096728346019 
-0.01350388710646696 
-0.7710273088903858 
-0.910867806320112 
0.5263576789369836 
0.7080738036672536 
0.8979952663235038 
-0.7873711772325191 
1.484788820570895 
-1.016204620064089 
-0.1116383939213053 
-0.3396897198347169 
-0.4134778542298657 
-0.6644730164930921 
0.1765022169029838 
-0.175836612621043 
0.05315347069734966 
-0.8469662458106456 
1.296518607462541 
0.5713491626820772 
-0.1286194678943119 
-0.05356994649527775 
-0.2113033734541145 
0.3313266281864569 
0.8923228475936871 
-0.1851204147674977 
1.648161580138193 
-0.06749867925206844 
0.4409200921843818 
-0.08892335095856581 
0.5191120484091013 
-0.9239469347748565 
-0.08595526848046693 
-0.3070904921022841 
0.9687124192985787 
0.8015155393481622 
-0.009937764129415886 
1.742053622190903 
-0.3167209734068898 
-0.1146170149194253 
-0.2415983260222286 
0.2668824478567502 
-0.1200300214465236 
0.1151386393850268 
-0.4568257121974406 
1.494205781651032 
-0.5436733376978367 
0.2941410146378673 
0.1419860803233614 
1.291976544059272 
-0.2649112262007957 
-0.7598000497508727 
-0.3113843444877604 
-0.4296886197498097 
-0.5631962414581834 
-0.3201175702295767 
0.1453675096931064 
-0.3408304208654662 
1.535597043773614 
1.120502932692927 
-0.3084255653838112 
-0.5193909535199541 
-0.2102689756180758 
-0.2117068043869128 
-0.751867914942605 
-0.09757326737449439 
-0.0368287137846466 
-0.498076910713818 
0.8056460693929801 
-0.09021844478825769 
-0.320994677099203 
-0.423858711735937 
0.3504048009168833 
0.06164273334141412 
-0.4495509106569683 
-0.9878741995722928 
-0.507150099249683 
0.2213145441654528 
0.5563863870961948 
-0.4708419160856357 
0.2620929644338881 
-0.8311137484018136 
0.3505595053808427 
0.3366704299261465 
0.8375637431261197 
-0.7918733354111236 
-0.2908523052125901 
0.6760810665175196 
0.4671358587457451 
0.09421302593478334 
0.3313091911320503 
-0.5020892423943445 
-0.2181997786054576 
0.04819171950321318 
-0.1668785209852146 
0.1791420557277522 
-0.1090762400753448 
-0.1299224149371975 
-1.087810296978637 
0.4426833278717472 
0.5133863677932702 
0.1058449070638647 
-0.6497632751822264 
-0.4653222496152599 
-0.1560179468520528 
1.315417227074769 
-0.7030245301175519 
-0.2375353268200452 
-0.4205187358009236 
0.193546511407062 
0.5151157856443388 
-0.2051168609575503 
-0.5136924300885078 
1.010861780203894 
-0.567117886657954 
-0.3304198282076073 
-0.1195351257141538 
-0.6193717549239699 
-0.3137541898968798 
1.53302396161074 
-0.2604669124622871 
0.9378220298036432 
-0.2428130697954045 
0.478613572878621 
-0.0367681221401254 
-0.05854504908350941 
-0.2929012682644048 
0.5037140179145057 
1.090395722729006 
0.6626414766706911 
-0.1686466098940626 
-0.05099481665982055 
0 
-0.04897895204151158 
-0.006534263899926933 
-1.301042606982605e-18 
0.2515374719230474 
-0.8670943769324289 
0.1192631215236981 
-0.5813237199609141 
-0.3942954375446145 
-0.06741637763753174 
-0.4097497635009394 
-0.207059164100817 
-0.4720957896113239 
0.4702891265600445 
0.1041252450195156 
-0.071983402416612 
0.347345384196375 
-0.03426209847191528 
-0.4384728051241115 
1.039457118894529 
0.02460298321344322 
0.928363623098403 
0.1072862783262743 
-0.1029262303062891 
-0.3319407435529919 
-0.4861292172065719 
-0.648745537678455 
-0.4731072006111522 
1.46046460797052 
-0.5543366484688992 
0.1009520851769766 
0.5029453487307899 
-1.104940412991656 
0.08088656732713152 
2.156024700186552 
-0.04620055081835585 
-0.2474284132670316 
0.02654945607363773 
-0.1034997293699656 
0.01608668920979612 
0.6780728384496167 
-1.4479057303441 
-0.01455377336118056 
-0.704982720374854 
-0.114695843909759 
0.06077405519074239 
0.8197106092196121 
0.5998512132514185 
0.03924225042671869 
0.7738531376860507 
1.159990357275472 
-0.3492665173990299 
-0.07244338553855179 
0.3945125970383133 
0.3273040712554729 
-0.8302332510808379 
-0.08818933499862977 
1.86998184266945 
-0.6545536381022732 
-0.02229297825832589 
0.07609674526100325 
1.004551798791735 
0.3250915853939593 
0.2009501732685694 
-0.5669092488892843 
0.853699246260512 
-1.25952821815034 
-0.3319976327535345 
0.320341244301628 
-1.83101488742514 
-0.7156483441370221 
0.094979775842327 
-0.1181228947263665 
0.9796104516549226 
1.28996469531569 
1.480824487839891 
0.1217603292570388 
-0.1010362394157868 
-0.3485805027705809 
0.1941379012072355 
-0.4425212740762148 
-0.2719255488177635 
0.4167077630208284 
-0.3523454653538422 
0.5314128815616003 
1.085141810433158 
0.3212376350936447 
-0.4018099692921665 
0.2510610110094573 
-0.1349145228369743 
-0.3964716710018777 
0.07249947919548198 
-0.0260836752282285 
-0.06119923709611339 
0.5353221697082114 
-0.8602230037328923 
0.3286122788543477 
-1.168204986071992 
-0.1042188731427877 
-0.0754248687392428 
-1.108365315514446 
0.9528204680075461 
-0.4382913716327011 
-0.9986542154577335 
0.179302539974198 
1.093785014921951 
0.404077854836916 
0.1041894499559663 
0.1684259636017298 
-0.2939664264080249 
-0.8781936612308118 
0.213566559207407 
-1.011229003809943 
0.2643652619885519 
-0.2975839825252132 
-0.1224602706305618 
0.09511628656362514 
0.429349927228649 
-0.06741039278276065 
0.1224890531003875 
-0.6026121773474831 
0.3486497265615819 
0.3093884250938782 
0.2475919998774655 
0.4061212319706781 
-0.5261568284602788 
0.1174462848562385 
-0.2840597516017301 
-0.06194148441691291 
-0.1714837186019585 
0.1292279910146865 
-0.9391391143232145 
0.6519772117110226 
0.4451490045507981 
-0.9615963661551624 
0.1178250627318122 
0.1393751888315173 
0.8033384444790473 
0.1324383337836899 
-1.533351419796615 
0.07021795904904513 
-0.2579187804808434 
0.6780113668585571 
0.6859820006377272 
-0.1805241418389097 
0.3423239797059662 
0.01748450872033989 
0.2116507348754881 
0.4306405541320163 
-0.5489359258926406 
-0.3863982490008728 
0.2458121415573057 
-0.03054255350093137 
0.2604482141880986 
-1.0698124774918 
-0.6608554179325107 
-0.06472549122583313 
-0.1729455726234426 
0.4297805656396348 
-0.7484192532567036 
-0.04011852423060614 
0.3820105921619175 
-0.004786353929153477 
0.2418479303159625 
0.03079278952100347 
0.3472443914295816 
-0.3592652144127969 
-0.5152358952588112 
-1.566812227556855 
-0.01853288066761507 
0.03426217356269166 
-0.041336647886589 
0.5411663363459932 
4.336808689942018e-19 
0.04569425367663755 
0.1265567487995467 
-0.3835114084237662 
0.6743379731249884 
0.1281675777323845 
-0.0472183821315308 
0.4766080978654381 
0.7754727180674303 
0.2900636935801665 
-0.4449639647092729 
-0.02668511999438395 
-0.1748989888154379 
0.09003593966243617 
-0.4494759428413356 
0.5535858938385422 
-0.0669355072606083 
-0.6092858203151762 
-0.2495709338616509 
0.6976390762021683 
-0.08783696781444647 
-0.6927592738846192 
1.156121930732799 
0.4545749912130579 
-2.19330251984966 
0.9094330369863689 
1.446510228546946 
-0.07649901228357893 
-0.4721025255301475 
0.7157681073650335 
-0.594838385488918 
-1.004797718065469 
0.4917332573600998 
0.1737751484006929 
2.564293918015505 
-0.5917201182205015 
-1.326552834860011 
-0.07777180330471879 
-0.1182969329995538 
-0.8974180985061844 
-0.2531322419891947 
0.5161483462644073 
-0.7966440443739677 
-0.2174126936399742 
-0.7649227210206995 
-0.04760164247103275 
1.512638189550769 
-0.09850847673485168 
-0.02824455850859688 
-0.9281944225369018 
-0.3019726862057168 
0.3108925091954253 
-0.3979580590819577 
-0.07060740117593992 
0.04048044888347094 
0.04096404021755261 
-0.1645635176406658 
0.5406207432881582 
1.211225148136659 
0.2292487946254965 
-0.7109049959436681 
-0.842247749892433 
0.8925521460005669 
0.5268637806296262 
-0.98230272340249 
-0.6345729265410865 
-0.06955682506249272 
0.4335211765190159 
0.03102708296362636 
0.245061785837584 
0.9551834494880059 
0.2786434569697693 
0.3662421223131175 
-0.4335303944573369 
-0.5517993475574563 
-0.402097932683274 
-1.070599307637378 
1.057709372015765 
-0.7013543184267569 
-0.1828410987096554 
0.1214490316931003 
0.2489062044540646 
-0.6769918134772643 
0.6751417004725101 
-0.546446125349067 
-0.0010020037050966 
-0.0898924966559855 
-0.3299435362735021 
0.02660420199842449 
0.05383718158470047 
-0.1705986919279179 
-0.02271271125209024 
-0.01207764021844765 
-0.9017224661267845 
-0.01315609581570145 
-0.528891147445519 
-0.02741300949327124 
-0.1290677863271658 
1.060649235739947 
-0.1508124707524023 
0.6330301670041281 
-0.6832052711553466 
0.8855674727781195 
6.505213034913027e-19 
0.1465597847401151 
-0.5521636319196075 
0.9549254554159194 
0.06487766661694364 
0.2624298548810817 
-0.5411232802013599 
0.6729614318743216 
-0.2052890286312632 
-0.1861825646861584 
-0.4164690096525916 
-0.1786702943421412 
-0.3055458259884396 
-0.8943581790784841 
0.3823697202508627 
0.5129807719771877 
1.586834585239971 
-0.05230089722042457 
0.5270828269746197 
0.0922998853600708 
0.006645210778903198 
-0.4460191560752936 
0.8308421706653462 
-0.04408549434146185 
-0.7147883901251531 
-0.01231864513407188 
0.9872718851207772 
-0.4951834804807524 
0.8734964762828022 
0.4964565322369106 
-0.3272137974738743 
0.6429613802345875 
-0.3872502321472486 
0.7987659070782948 
-0.3446411179026286 
-0.4534993874744805 
0.7140753264368419 
-1.238682738744089 
-0.4141703250428216 
0.09122345065720584 
1.546829693060165 
-0.3008186007752874 
0.1327978133292838 
0.2709122596620926 
-0.02950973890575132 
0.2001183457877454 
0.006327016202282246 
0.105239503425817 
0.2727007418891748 
-0.3607002130457752 
-0.6189302361842421 
0.2714671609836667 
-0.6279390435681516 
-1.264029526813542 
0.2513121146460853 
0.2410110657455656 
0.4901407210752959 
0.9789508329740805 
-0.009463594616961777 
-0.7123953680447945 
-0.5619475747509564 
0.5319467235848184 
-0.6408953004976163 
-0.8310080808208447 
-0.3294093650418402 
-0.1317690134721875 
0.02338279316444736 
0.5748440155196911 
-0.06174067547612756 
-0.05161405677882102 
-0.5238111929466335 
0.3325465986862668 
-0.5171230055478494 
-0.6819075902459638 
0.2381861491075624 
0.3764510046982865 
0.1574202608059123 
-0.4193167632995077 
-0.03244380278244708 
-0.2342481884415601 
0.01465738756795125 
0.7729239193208575 
-0.5794846839425062 
-0.544218071668908 
-0.8395742726627453 
-0.01465682689225558 
-0.9986275087546561 
0.1353966648603358 
0.220623451161991 
0.8665849026227483 
-0.4216911186236342 
0.09740931405508862 
-0.3783302048637602 
0.2695626247541044 
-0.4181798720376839 
-0.3733542640720311 
1.792025546641239 
0.2136886839603317 
-0.15811340705595 
1.940400902930305 
-0.4072626722335931 
0.9246536009021157 
-1.130355940484623 
-0.3652427114657164 
-1.460919376157839 
1.032970714103696 
0.1734806160194357 
-0.5198187487094251 
0.287255979261012 
-0.1029752370529511 
-1.414891686350677 
0.6097512181011558 
-0.3524020910198882 
0 
1.094720425864984 
0.3551703797612202 
-0.847838928745991 
1.323482552708566 
-0.1058389034219391 
0.724501146683672 
-0.2711603181515143 
0.2589247122965503 
0.2500463054610201 
0.008978660755349692 
0.07238693501732719 
-0.6483046299631973 
1.143423428133278 
-0.1374148269532821 
-0.1662360775381718 
-0.3405013202485107 
-0.1967751576229181 
0.7341464636031584 
-0.3076899525944128 
-0.04600986639379294 
-1.137582023423185 
0.4066515453610199 
-0.2882855891257331 
0.2865173201647542 
-0.5558614868200625 
-0.6149121404833976 
0.8638402758021814 
0.09853917350136733 
1.010019532310823 
-0.4190126974960269 
0.2085725240413234 
0.2285273956203753 
-0.3230910790655408 
-0.05490391983607856 
-0.1930923345870267 
-0.4101882250061543 
-0.4113806493548172 
-0.6892647502917051 
-0.1774305207991023 
-0.1797735813343969 
0.003684541960201001 
0.3571524233208683 
-0.253216795482022 
1.614163025321588 
-0.2534229749194367 
0.2329959659632244 
-1.107715426208537 
0.4908206847493835 
-0.324425606331124 
1.127188585431747 
-0.006004033776344148 
-0.2921823631470433 
-0.1004906270129251 
-0.3356554786249513 
-0.1105786902776101 
-0.2247621502998342 
0.1381324776603164 
0.1539083689054341 
0.1352012803715052 
-1.257507880282688 
0.09795894875622432 
-0.32788576432982 
0 
0.2289109437340058 
-0.4657253113952798 
-0.4881937389178424 
-1.298624257659419 
-0.3005275840791556 
-0.2491812003083104 
0.1255507846244563 
0.4521780280536805 
0.1537265655721473 
-0.04289346096542054 
-0.243648792936289 
1.109446218945142 
0.06446953764440409 
0.01682878665427607 
0.2865548561799399 
0.5170447031075597 
0.05522767409284586 
0.4388943681475805 
1.1547147549904 
0.1352366568654683 
-0.3272336148176484 
0.5980527070156146 
0.1404254821409587 
1.189285404528081 
-0.02926661817677582 
0.3181293033835709 
-0.4753384019772761 
1.231939875637847 
-0.003259463372592567 
0.3342569940172526 
1.555851012766054 
-0.196252633329533 
-0.5354790866626441 
0.3776733958481195 
-0.5915940788440066 
0.05743608719235183 
0.6560202459741165 
0.187720413485077 
0.08073621455838009 
-0.7076466787666575 
-0.1488051446136563 
1.062771715420572 
-1.642901102038886 
-0.2027933187583916 
0.4750114229251693 
-0.4950030799247078 
-0.1341086624706863 
-0.02299120232017741 
-0.07225543088767943 
1.700842037667647 
1.044841504960838 
-0.505265792295197 
0.2881111896616971 
0.6006980126297616 
-0.2973064717424369 
0.5192161281803552 
1.023788233369718 
0.7271529772335462 
-0.02095521867938682 
-0.1727049087356627 
0.1847582192873965 
-0.07205885748765106 
-0.4903566466676983 
-0.02719525064556193 
1.298060940915402 
0.4375912282152586 
0.5106123955832432 
0.2252553462531423 
-0.8818141404307859 
0.6179954151323208 
-0.008619024259275587 
0.688168308153203 
0.7583404373958872 
-0.9492998319172888 
0.1900337829852027 
-0.2701145953296269 
-0.7641377711030486 
-0.4118028898603751 
-0.1027740304612255 
1.176081970589578 
-0.2668762712734646 
0.4294708329435434 
-0.1621662458217179 
0.1597817992376506 
-0.1829780360398401 
0.3728231570998322 
-0.3481797465689838 
-0.6527063633593133 
0.3600020387065592 
0.3366053671036004 
-0.3261623992650672 
-0.6875596567244969 
0.1040251509075071 
-0.1941910187593544 
0.7703227498210189 
0.189067524160744 
-0.1985120282041279 
0.3768708062060908 
0.2187115442641682 
-1.140350601166156 
0.04562557605446115 
-0.3487142404794182 
0.55024597080244 
0.5314229993713097 
-0.4964630144991904 
0.2641651062664385 
-0.8041299469727268 
-0.4780250621073465 
0.5569054173023874 
0.06913322509586117 
-0.2220041403572949 
0.2991452773605131 
0.09009823189962769 
0.1056183355930844 
0.1471289423453489 
0.2473432641070072 
1.178890671756145 
-0.1540812470689416 
-0.7210552187860122 
-1.215287724599453 
0.3467444880688932 
-0.0901533495223608 
0 
-0.3518700559107648 
-0.3860882044552361 
0.6315677748431138 
-0.08303454616746454 
-0.2888925270365454 
-0.008340623228408077 
-0.6782763325075429 
-0.4916643955520756 
-0.3687863155252752 
0.1868871157239765 
0.180028494013891 
-0.5314054407513461 
-0.6515722256285006 
-0.357646403410179 
-0.8606701279848075 
0.9683883453384176 
0.6160146491580947 
-0.09775990514882545 
-0.3050940314308185 
0.1091418277350457 
-0.6207712827840122 
-0.05702781454943334 
-0.1391969456811508 
0.3990634429817402 
0.6485575718709247 
0.2660037819054689 
-0.196173759099066 
0.1886551075770737 
-0.2560248705209363 
-0.02163995166266615 
-0.3505145698611757 
-0.9851828314628202 
-0.4566156017784385 
-0.1795701898917535 
0.6314824881284815 
-0.7778800297270078 
0.212028982908557 
-0.224701573990516 
-0.2956387510704628 
1.119394794462773 
-0.1444633616319657 
0.2958558016873922 
1.301042606982605e-18 
-1.716663276712776 
-0.3303432361261597 
-0.6713757299230191 
-0.4093767200890255 
-0.9776057609803165 
-0.2624766211869321 
-0.01040355193306899 
0.7661449256595442 
-0.2848923213986331 
-0.7958175262676167 
1.712862803316887 
0.3391801804042758 
-0.2578690682841268 
0.06718815837793134 
-0.7346789562607301 
0.01464380216155558 
-0.1308046053491572 
-0.3727935421764837 
-0.09578231103156488 
1.147455558862641 
0.02500929141709783 
-0.3902007467117981 
-0.1460377812322908 
-0.2553210000128402 
0.7156410056089767 
0.8048941778194791 
-0.1357465089613017 
0.683998455124515 
0.1621880369076355 
0.2763774550356711 
0.2740359859288715 
1.412606481385767 
-0.1366731630098229 
1.512352936990252 
-0.4945256039845886 
-0.03915850584877432 
-0.06663821308446401 
-0.08320524975789989 
-1.80380088317223 
0 
0.58574598477497 
-0.09851264201089102 
0.6331741926771136 
-0.2538488645789804 
0.04931848245029721 
-0.1401370477702707 
-0.8662669823601546 
0.05881641647929003 
0.09340464006700153 
-0.3314293973162105 
-0.3017997528770381 
-0.1129630644964671 
-0.2072641939936453 
0.3849255773380299 
-0.04543160089587134 
0.1822627540275804 
0.286818539991462 
-0.1758981750109925 
0.743524698137069 
-0.7676401400651172 
0.08609192226421745 
-0.3525915439244295 
0.4723719821938342 
-0.3029808752533262 
-0.2520025393443095 
-0.05574294569002503 
0.8826767925004859 
-0.05536918968771786 
0.2657176954607922 
-0.178545189759169 
0.5159157834771008 
0.3407834106970591 
0.01621588169125661 
0.2272721386336767 
-0.6791232068795885 
0.4169059430558233 
0.2884380746308058 
0.1196492934532041 
-0.2142938826630853 
0.1398980021275328 
1.073637298553509 
0.1795833225352165 
-0.3359739878225509 
0.1771680380818116 
0.3615533661117818 
-0.01368421099235206 
0.1915794042810909 
-0.005612359242132216 
0.2242997858337545 
1.184554815608927 
-0.6577892408854089 
-0.08463118227604317 
-0.1911101163919878 
-0.04738924161825574 
-0.009123146511810308 
0.08012687285335179 
0.4188148178551872 
0.1154820960859488 
0.1392401937319755 
0.5007942689221589 
0.02019448752170871 
-0.4827028791002523 
-0.1973064620563985 
0.3216970884466065 
0.6134146629329197 
-0.1888564885129376 
0.6902265141522942 
-0.4486719063979244 
-0.3741534366885308 
-0.3967302129730519 
-1.553344298494081 
-0.1568170613478367 
-0.0121510025573347 
1.131718453095302 
-0.5421263605599044 
0.5709546720675216 
1.004242696818011 
0.1849370397769577 
0.2057443469011644 
-0.02658181512128929 
-0.2715739077379709 
0.3716030587464121 
0.1920467665544067 
0.2375647383384439 
0.2711806281080534 
-0.2920864376171946 
0.06642508366178915 
0.1471706096098961 
0.1236869395314401 
0.8907416828447935 
0.5194641097730407 
-0.3278913819245974 
-0.1590401048388368 
1.15932139334854 
0.6046131157980728 
0.1071276965487362 
0.2471316321987664 
-0.2085085700959644 
0.2420225972308722 
-0.2910811473190647 
0.9035494037785596 
-0.729216023798238 
8.673617379884035e-19 
-0.4777722545473282 
0.0666166762367033 
0.259998090640008 
0.6744376033415912 
0.2741889046451159 
0.25324140895138 
0.9174323444687649 
-0.05515908385628766 
-0.3046998847692275 
0.7608629126415176 
-0.1550071167198467 
0.04278319694785971 
0.05888850104774943 
0.06003192878798827 
0.5522857501729346 
-0.1881227942263609 
0.6075107349247749 
0.2098603770002014 
-0.9950969557765239 
0.252877643540817 
0.7780548031144355 
-0.9645683732753688 
-0.1006585110505853 
-0.6252156029413866 
0.4363515861321208 
0.9790907856332971 
-0.438391354968158 
1.431897563148878 
-0.4681867152313406 
0.746281766058162 
0.5049820663986958 
-0.7554255461683405 
-1.778736942631569 
0.4404433019799063 
-0.189987468066081 
-0.1495923776321632 
-0.7992201161740289 
-0.5418082567768516 
1.136007102976832 
0.2759305862100513 
-0.3490592842016336 
0.2013740527799163 
-0.1359654442970138 
-0.2860824230278304 
0.9161339024067259 
1.230588439712223 
-0.6212317271022186 
-0.6159460926306094 
-0.03794315832482105 
0.4501499041711749 
0.2121121326406045 
-0.08503692281130593 
0 
-0.0160608975980229 
0.7691475918004971 
0.1723199376734811 
0.1806900212078829 
-0.5056283414193649 
-0.03895544926892474 
-0.6715437899735375 
-0.403690059381312 
-0.6841820033268053 
1.247484468947224 
0.08201447047039984 
-0.7644628774751728 
0.3470427049637391 
-0.6095114384415528 
-0.02979229923987602 
-0.615702202469611 
1.054381624829739 
0 
0.2603085620198931 
-0.8372098525532394 
-0.3065287385144363 
1.17933384550997 
-0.09599044665242766 
-0.2006095335810629 
-0.6126758237795105 
-0.1753386839311414 
1.494966069104778 
-0.593813935873454 
0.4067927912477162 
0.08940301774697468 
0.1867616647704276 
0.3124162386192741 
0.3202948235186527 
-0.1721595621237465 
-1.766538281782157 
0.8676802746115482 
-2.155240808168496 
-0.7050863997275708 
-0.6277270307686791 
0.5676080056496603 
0.4389213985568922 
0.1442053068366596 
-1.186221488818586 
0.8027624259492755 
-0.02016662179020806 
2.082286737939824 
0.3833738972800211 
0.3786179139442168 
0.359081309703433 
-0.05074185659127198 
0.1998126802484897 
0.4603805458371029 
-0.127281696869075 
0.1946030970789183 
0.1260543377332369 
0.9710983206354896 
0.4172775426376038 
0.3394215769034403 
0.7476011027203542 
-0.5192580054868237 
0.05743639532021912 
0.9769459905272256 
-1.096772794545188 
0.03869534768373991 
0.5994124772484198 
-0.9228971222394156 
0.1607458949683932 
0.9601399682539669 
-0.9867389409546813 
0.9002118148235939 
-0.3056159153945602 
0.9006205193423287 
-0.2479176808410099 
0.8497781947445111 
-0.5586486968340612 
0.06342346465759369 
-0.3026676795361342 
-0.5822679612119808 
0.4377074519189201 
-0.8188186663261512 
-0.05622515466898365 
0.09250832841025756 
-0.189551223899174 
-0.01138880284602368 
-0.02653748139759373 
-1.177201448607094 
-1.567905858414925 
0.3258454698247726 
-0.04095204200843048 
-0.09812586090832846 
-0.3908728791384069 
2.031644181824476 
-0.4760808481541418 
0.8288375653698885 
-0.4295425406099203 
0.5116779685356232 
-0.2778745034644964 
0.1221427533191613 
-0.5264879190255326 
0.1538264178919867 
-0.8210918001817329 
0.7833890511775716 
0.6719135563618397 
0.4842220348629875 
0.1647273984906596 
-0.1035566163215173 
0.2613567399246928 
0.7274959681003529 
-0.005714902326609708 
-0.6125954048627574 
-0.6438523942268664 
0.6865030300456898 
0.04292727344132562 
-0.4480360142798339 
-0.04337525836403851 
0.201649394312964 
0.2434441744510771 
1.034206767412681 
-0.4216112336721437 
-0.3496178864146602 
-0.07398797103934143 
0.8128615443357856 
0.02226077035741465 
0.2383188003836858 
0.7037041705875022 
0.218113973655365 
-0.3326614645167073 
-2.129305173878416 
-0.009659818269148628 
-0.5513141982625936 
-0.2800303031458537 
0.02886427617908452 
-0.3047797651816628 
-0.01501923542664003 
-0.4048409221323814 
-0.3976306515073233 
0.2334822481141245 
1.258397549870085 
1.670061538757001 
0.2081695776317601 
-0.6369469138432073 
0.497264227961916 
-0.06859591855124951 
0.4918971837114648 
-1.127179201869151 
-1.029334636832064 
-0.3035702405540027 
-0.3137236132986605 
-0.1620700488197673 
-0.1649625717716754 
0.8882640215696751 
0.1783080600406408 
0.8375340535145821 
-0.8010554794730925 
-0.09050711164868261 
0.8849727495741563 
0.2743654699910879 
-0.1082822317633494 
0.1354850759374817 
-0.2454707266014306 
0.603107537475963 
0.6480891997382688 
0.8609454091483401 
-0.5963126640033631 
-0.8795621846753875 
0.01519615888491842 
-0.3019567951058783 
-0.1425349373269678 
-1.009848868350856 
0.5580804730993564 
-0.1024001053028105 
-0.6316739429899919 
-1.317022484996475 
0.7716937874085543 
-0.1397181036020982 
-1.461167863478331 
-0.09535879658612455 
-0.7528417489922524 
0.7923890853594494 
-0.004698781619450699 
-0.09665863707134409 
-0.6925828219586322 
-0.0199679526789321 
-0.2374899804288876 
0.3058603866338905 
1.195039079062952 
-0.5953823538129361 
0.1963388032433459 
-0.8413081588435826 
-0.05463375260335197 
-0.6492709143075452 
0.2097785020076786 
-0.2207507361078783 
-0.4351886164251171 
-0.3768453529501398 
-0.3548684097903288 
-0.2486565567001964 
0.1430377588580515 
-1.485096038580275 
-0.2490544451132398 
-0.6198422551316557 
-0.03326464668793033 
-0.3030535888778171 
-0.2478465979367762 
-0.5612713142865823 
1.121059110816725 
0.8349302158465881 
-0.6399263513406276 
0.2080012580252446 
-1.168436668075341 
-0.05867621866554818 
0.6373755104665713 
-0.2062941951413027 
-0.9289359154527954 
0.3349991870054637 
-0.3432555930264747 
-0.01668035768838328 
0.320467546513605 
-0.2487657036716731 
0.5539761940082298 
-0.5344647014599424 
0.0382971161988816 
-0.3068184603469884 
-0.006952230796942402 
0.1655308368504134 
-0.8546474219661991 
-0.112032775053528 
0.5159698948248822 
0.04689437758034314 
0.5412550945953508 
-0.0263209707313761 
-0.2672167239557905 
0.556327971685099 
0.8388151009193733 
0.3211516008731209 
-1.407950750687295 
0.6847370266593589 
0.1413592628936386 
0.3830653661784291 
-0.722465510627509 
-0.04928985640761145 
0.09256364412324189 
0.6614424154661406 
-0.05079672258898121 
-0.08492801726581567 
0.06599519011975995 
0.4598000521862039 
0.984363421010271 
-0.2534486878546761 
-0.04739480274693266 
-0.1462086789152815 
0.3477351575567791 
-0.2139635181389997 
-0.2360621698578177 
-0.2899591572886911 
-0.2511528416624162 
-0.5398617873033618 
7.115076756936123e-20 
-0.0667184898547592 
-0.05608160874983285 
0.6905782389753807 
1.060937409091909 
0.7133468722603871 
-0.424373668776433 
-0.1468130292350966 
-0.07541306822357378 
-0.07410711498479376 
0.7469126184220829 
0.4379404297868264 
0.4599322907152584 
1.884607236722191 
0.1788320980585105 
0.9258177456042574 
1.246205374277065 
0 
-0.1224701164106204 
-0.6010563054732118 
-0.004864024913344115 
1.595459990495251 
-0.03115521265143174 
-0.1816940687225171 
-0.105220322537391 
0.5473578691357175 
0.5061555214172493 
-0.5788907587310501 
1.220562364470046 
0.1041823685999631 
0.3040768480284238 
0.7172442796128723 
0.3178041115582709 
0.2760325360658533 
-0.06536889251220764 
0.1936061258162126 
0.3313373646538507 
-0.1015990407616135 
0.7854405880294216 
-0.1028673695448469 
0.747734563880323 
0.04402981208844418 
0.8614714730665697 
-0.3090725808239183 
-0.4181718469127075 
-0.6778397209316901 
-6.938893903907228e-18 
0.2445745090097294 
0.1222435866271976 
-0.008332953218080254 
0.3302856137864204 
-0.0835024570342613 
-0.1469039903260764 
-0.0807649927318851 
-0.3060445643422925 
-0.4385488527111363 
0.9410335013629598 
0.5259172127027379 
0.2326634276138005 
0.2941195615791015 
0.5569728500601765 
0.8306827630597562 
-0.008774220270143194 
0.01707752300920309 
